<?xml version="1.0"?>
<opencv_storage>
<svm type_id="opencv-ml-svm">
  <svm_type>C_SVC</svm_type>
  <kernel><type>RBF</type>
    <gamma>1.0000000000000001e-005</gamma></kernel>
  <C>2.5000000000000000e+000</C>
  <term_criteria><epsilon>1.1920928955078125e-007</epsilon>
    <iterations>2147483647</iterations></term_criteria>
  <var_all>100</var_all>
  <var_count>100</var_count>
  <class_count>10</class_count>
  <class_labels type_id="opencv-matrix">
    <rows>1</rows>
    <cols>10</cols>
    <dt>i</dt>
    <data>
      0 1 2 3 4 5 6 7 8 9</data></class_labels>
  <sv_total>862</sv_total>
  <support_vectors>
    <_>
      2. 0. 3. 64. 140. 192. 105. 2. 0. 0. 1. 2. 99. 255. 214. 254. 255.
      140. 0. 0. 1. 0. 185. 252. 42. 30. 222. 241. 0. 0. 0. 1. 241. 191.
      1. 1. 191. 242. 0. 0. 1. 0. 242. 191. 1. 0. 191. 242. 0. 0. 1. 1.
      241. 191. 0. 0. 191. 242. 0. 0. 0. 0. 242. 191. 0. 1. 191. 242. 0.
      0. 0. 1. 242. 194. 3. 3. 194. 242. 0. 0. 0. 1. 168. 254. 133. 179.
      255. 214. 0. 0. 2. 1. 24. 168. 255. 253. 215. 71. 0. 0.</_>
    <_>
      1. 0. 37. 205. 255. 254. 137. 1. 0. 0. 1. 1. 130. 205. 10. 138.
      248. 19. 0. 0. 0. 1. 131. 128. 1. 23. 252. 46. 0. 0. 2. 2. 130.
      128. 1. 23. 254. 59. 0. 0. 0. 0. 130. 128. 2. 24. 254. 61. 0. 0.
      0. 0. 130. 128. 1. 22. 255. 62. 0. 0. 0. 0. 130. 128. 1. 22. 255.
      60. 0. 0. 0. 0. 130. 128. 1. 23. 250. 31. 0. 0. 1. 1. 81. 241.
      182. 218. 193. 1. 0. 0. 1. 2. 1. 118. 192. 149. 17. 1. 0. 0.</_>
    <_>
      1. 1. 0. 99. 193. 254. 115. 8. 0. 0. 1. 1. 13. 230. 233. 220. 253.
      76. 0. 0. 1. 1. 118. 255. 84. 8. 255. 127. 0. 0. 1. 2. 128. 255.
      77. 1. 254. 128. 0. 0. 1. 1. 128. 255. 77. 1. 255. 127. 0. 0. 1.
      0. 128. 255. 54. 2. 254. 128. 0. 0. 1. 0. 127. 254. 39. 1. 254.
      127. 0. 0. 1. 1. 117. 255. 77. 1. 255. 128. 0. 0. 1. 0. 26. 255.
      189. 150. 254. 128. 0. 0. 0. 1. 0. 100. 255. 255. 203. 16. 0. 0.</_>
    <_>
      0. 1. 96. 252. 245. 246. 252. 97. 1. 0. 1. 14. 211. 196. 1. 1.
      196. 156. 1. 1. 1. 23. 255. 103. 1. 1. 87. 203. 11. 0. 0. 23. 255.
      207. 1. 1. 85. 222. 15. 1. 0. 23. 255. 207. 0. 0. 86. 255. 22. 0.
      1. 5. 179. 206. 0. 0. 86. 255. 22. 0. 1. 0. 156. 207. 0. 0. 86.
      255. 22. 0. 0. 1. 155. 207. 0. 0. 86. 255. 23. 0. 1. 0. 155. 251.
      145. 111. 218. 164. 2. 0. 0. 2. 23. 213. 254. 255. 213. 22. 0. 0.</_>
    <_>
      1. 0. 5. 114. 191. 191. 63. 6. 1. 0. 1. 9. 154. 238. 156. 156.
      238. 154. 9. 1. 1. 33. 235. 77. 1. 1. 159. 255. 45. 1. 1. 37. 243.
      44. 1. 2. 159. 254. 44. 1. 0. 45. 255. 44. 1. 1. 160. 190. 4. 0.
      1. 3. 190. 45. 0. 2. 159. 185. 0. 1. 1. 45. 253. 44. 1. 1. 159.
      228. 29. 0. 2. 34. 235. 77. 2. 5. 134. 236. 33. 2. 1. 1. 185. 238.
      104. 108. 255. 142. 0. 0. 0. 0. 47. 133. 245. 192. 113. 6. 0. 0.</_>
    <_>
      1. 1. 1. 71. 211. 252. 236. 55. 0. 0. 1. 0. 1. 247. 106. 19. 216.
      142. 0. 0. 2. 1. 63. 254. 7. 0. 128. 146. 0. 0. 1. 1. 1. 254. 7.
      1. 140. 146. 0. 0. 1. 1. 1. 254. 7. 0. 223. 146. 0. 0. 0. 1. 37.
      254. 6. 1. 192. 147. 0. 0. 1. 1. 2. 255. 7. 2. 176. 146. 0. 0. 0.
      1. 1. 254. 7. 1. 128. 146. 0. 0. 1. 1. 1. 211. 73. 4. 238. 128. 0.
      0. 1. 0. 2. 131. 253. 248. 213. 3. 0. 0.</_>
    <_>
      0. 0. 73. 255. 255. 254. 144. 2. 0. 0. 0. 0. 73. 255. 0. 63. 239.
      2. 0. 0. 0. 0. 73. 255. 1. 1. 78. 22. 0. 0. 0. 0. 73. 255. 1. 1.
      255. 74. 0. 0. 1. 1. 96. 254. 1. 2. 255. 74. 0. 0. 1. 1. 87. 228.
      1. 1. 254. 73. 0. 0. 1. 1. 107. 192. 1. 2. 255. 74. 0. 0. 1. 1.
      101. 143. 0. 1. 255. 37. 0. 0. 1. 2. 81. 199. 48. 111. 254. 1. 0.
      0. 1. 0. 49. 217. 255. 234. 95. 2. 0. 0.</_>
    <_>
      1. 1. 0. 69. 149. 186. 120. 1. 0. 0. 2. 0. 60. 249. 227. 226. 254.
      60. 0. 0. 1. 1. 183. 217. 2. 2. 218. 155. 0. 0. 0. 1. 202. 176. 1.
      1. 176. 149. 0. 0. 1. 5. 209. 175. 1. 3. 254. 119. 0. 0. 1. 15.
      227. 175. 1. 1. 189. 119. 0. 0. 1. 0. 201. 175. 1. 4. 254. 118. 0.
      0. 1. 0. 201. 175. 1. 4. 254. 119. 0. 0. 1. 2. 196. 214. 18. 111.
      254. 112. 0. 0. 1. 1. 70. 216. 255. 255. 182. 1. 0. 0.</_>
    <_>
      1. 1. 166. 255. 188. 221. 215. 32. 0. 0. 0. 15. 227. 138. 2. 12.
      253. 119. 0. 0. 2. 6. 212. 92. 1. 2. 229. 183. 0. 0. 0. 1. 200.
      119. 1. 4. 254. 171. 0. 0. 1. 1. 200. 135. 1. 2. 216. 201. 0. 0.
      1. 0. 201. 175. 0. 1. 175. 201. 0. 0. 1. 1. 200. 175. 1. 1. 175.
      201. 0. 0. 1. 1. 201. 175. 1. 2. 191. 201. 0. 0. 1. 1. 121. 246.
      129. 178. 254. 120. 0. 0. 1. 0. 1. 121. 253. 253. 120. 1. 0. 0.</_>
    <_>
      0. 1. 2. 113. 254. 254. 200. 68. 0. 0. 2. 1. 73. 254. 198. 155.
      252. 213. 3. 0. 1. 1. 83. 255. 58. 1. 128. 254. 7. 1. 0. 1. 83.
      240. 31. 1. 128. 255. 7. 1. 1. 0. 84. 240. 33. 1. 128. 255. 7. 0.
      1. 2. 83. 242. 34. 2. 127. 255. 7. 0. 1. 1. 128. 239. 30. 1. 128.
      254. 7. 0. 1. 1. 172. 223. 1. 1. 128. 254. 7. 0. 1. 1. 126. 254.
      115. 54. 237. 173. 0. 0. 1. 1. 20. 250. 255. 255. 251. 69. 0. 0.</_>
    <_>
      1. 1. 74. 255. 86. 170. 190. 1. 0. 0. 1. 1. 74. 164. 2. 74. 254.
      1. 0. 0. 0. 1. 74. 143. 1. 61. 255. 1. 0. 0. 1. 0. 75. 144. 1. 34.
      254. 1. 0. 0. 1. 1. 74. 143. 1. 17. 255. 1. 0. 0. 1. 0. 74. 144.
      1. 1. 254. 1. 0. 0. 1. 1. 74. 143. 2. 1. 253. 30. 0. 0. 1. 0. 74.
      223. 1. 30. 254. 37. 0. 0. 1. 1. 38. 254. 150. 182. 236. 1. 0. 0.
      2. 1. 1. 133. 255. 234. 55. 1. 0. 0.</_>
    <_>
      2. 1. 131. 254. 254. 255. 254. 135. 6. 1. 1. 0. 185. 254. 233.
      211. 238. 254. 116. 1. 1. 12. 205. 254. 51. 0. 76. 254. 160. 0. 0.
      29. 229. 255. 19. 2. 45. 254. 159. 1. 0. 0. 185. 255. 19. 1. 45.
      254. 160. 0. 0. 0. 185. 255. 19. 0. 46. 254. 160. 0. 0. 0. 185.
      255. 39. 1. 44. 254. 160. 0. 0. 0. 185. 255. 167. 6. 103. 254.
      160. 0. 1. 1. 116. 238. 254. 214. 254. 227. 48. 1. 0. 1. 1. 59.
      135. 254. 178. 46. 1. 2.</_>
    <_>
      1. 0. 9. 125. 233. 143. 90. 10. 0. 0. 1. 2. 125. 255. 192. 233.
      255. 125. 0. 0. 1. 1. 255. 192. 0. 1. 253. 144. 0. 0. 1. 1. 254.
      144. 0. 1. 164. 143. 0. 0. 0. 1. 254. 143. 1. 0. 234. 143. 0. 0.
      1. 0. 255. 144. 1. 2. 233. 143. 0. 0. 1. 1. 254. 143. 1. 1. 213.
      143. 0. 0. 0. 0. 206. 192. 1. 1. 254. 143. 0. 0. 2. 0. 126. 255.
      234. 191. 254. 125. 0. 0. 1. 2. 10. 90. 206. 163. 90. 10. 0. 0.</_>
    <_>
      1. 1. 2. 40. 146. 254. 113. 1. 1. 0. 1. 1. 41. 221. 94. 54. 238.
      117. 0. 1. 1. 2. 143. 223. 1. 0. 159. 198. 3. 0. 1. 1. 129. 223.
      0. 1. 127. 174. 1. 0. 1. 1. 120. 149. 0. 0. 128. 172. 0. 0. 1. 0.
      173. 127. 2. 1. 127. 171. 0. 0. 1. 2. 172. 211. 1. 1. 128. 174. 1.
      0. 1. 1. 171. 223. 1. 1. 128. 199. 2. 0. 1. 0. 127. 238. 41. 9.
      179. 172. 0. 0. 1. 1. 49. 199. 229. 126. 252. 69. 0. 0.</_>
    <_>
      1. 1. 0. 88. 252. 172. 121. 1. 0. 0. 0. 1. 1. 226. 134. 132. 246.
      25. 0. 0. 1. 1. 2. 255. 7. 3. 236. 110. 0. 0. 1. 1. 1. 223. 0. 1.
      223. 109. 0. 0. 0. 1. 2. 223. 1. 1. 221. 110. 0. 0. 1. 0. 1. 222.
      1. 1. 223. 109. 0. 0. 1. 1. 96. 223. 0. 1. 223. 84. 0. 0. 1. 2.
      109. 223. 1. 0. 223. 63. 0. 0. 0. 1. 1. 239. 4. 4. 238. 1. 0. 0.
      1. 1. 1. 235. 108. 109. 175. 1. 0. 0.</_>
    <_>
      1. 1. 64. 191. 255. 255. 254. 64. 1. 1. 1. 0. 254. 254. 64. 1.
      191. 255. 1. 1. 1. 0. 255. 127. 1. 1. 64. 254. 65. 1. 1. 1. 255.
      127. 2. 1. 1. 255. 1. 0. 1. 64. 255. 128. 0. 1. 64. 255. 64. 1. 1.
      128. 255. 128. 1. 1. 128. 255. 127. 2. 1. 128. 255. 128. 1. 0.
      129. 254. 127. 2. 1. 64. 255. 128. 0. 1. 128. 254. 64. 1. 1. 1.
      254. 191. 64. 65. 254. 255. 0. 0. 0. 1. 2. 128. 191. 255. 128. 2.
      0. 0.</_>
    <_>
      1. 0. 69. 196. 254. 254. 143. 0. 0. 0. 1. 19. 224. 221. 188. 212.
      254. 72. 0. 0. 1. 67. 253. 128. 1. 55. 247. 105. 0. 0. 0. 68. 255.
      65. 1. 1. 239. 158. 0. 0. 1. 67. 254. 3. 0. 1. 238. 105. 0. 0. 0.
      67. 255. 4. 1. 0. 239. 105. 0. 0. 1. 68. 254. 65. 0. 2. 239. 105.
      0. 0. 1. 67. 254. 77. 1. 16. 240. 106. 0. 0. 0. 47. 241. 221. 188.
      212. 253. 73. 0. 0. 1. 1. 70. 143. 255. 161. 82. 1. 0. 0.</_>
    <_>
      1. 1. 2. 155. 255. 254. 118. 1. 0. 0. 2. 0. 88. 254. 195. 242.
      255. 3. 0. 0. 0. 1. 127. 242. 11. 42. 253. 4. 0. 0. 0. 1. 128.
      238. 1. 41. 255. 102. 0. 0. 0. 1. 128. 239. 0. 42. 254. 127. 0. 0.
      0. 0. 128. 239. 0. 42. 255. 127. 0. 0. 0. 0. 127. 254. 40. 42.
      254. 128. 0. 0. 0. 0. 128. 254. 42. 41. 254. 127. 0. 0. 1. 1. 89.
      253. 149. 190. 254. 61. 0. 0. 1. 1. 2. 196. 254. 253. 119. 1. 0.
      0.</_>
    <_>
      1. 0. 92. 255. 189. 243. 254. 32. 0. 0. 0. 0. 200. 181. 1. 16.
      254. 118. 0. 0. 1. 1. 201. 174. 1. 3. 255. 118. 0. 0. 0. 1. 200.
      175. 1. 3. 229. 119. 0. 0. 2. 0. 200. 175. 0. 1. 175. 118. 0. 0.
      1. 2. 201. 175. 1. 0. 175. 119. 0. 0. 2. 0. 201. 175. 1. 1. 175.
      118. 0. 0. 1. 2. 155. 217. 3. 29. 219. 118. 0. 0. 1. 2. 111. 249.
      226. 240. 249. 60. 0. 0. 0. 1. 1. 68. 186. 148. 44. 1. 0. 0.</_>
    <_>
      0. 1. 1. 60. 219. 219. 135. 1. 0. 0. 1. 1. 1. 194. 254. 159. 255.
      95. 0. 0. 1. 1. 1. 255. 120. 1. 195. 159. 0. 0. 0. 1. 0. 254. 1.
      1. 160. 159. 0. 0. 0. 0. 96. 255. 1. 0. 159. 159. 0. 0. 0. 0. 96.
      255. 1. 1. 159. 135. 0. 0. 0. 0. 96. 255. 1. 1. 160. 95. 0. 0. 0.
      0. 96. 255. 1. 1. 195. 96. 0. 0. 1. 1. 97. 255. 84. 120. 254. 96.
      0. 0. 1. 1. 0. 219. 254. 254. 219. 0. 0. 0.</_>
    <_>
      1. 1. 8. 115. 153. 224. 100. 0. 0. 0. 1. 1. 45. 255. 188. 188.
      229. 14. 0. 0. 1. 1. 128. 242. 9. 39. 254. 37. 0. 0. 0. 0. 128.
      127. 1. 1. 255. 128. 0. 0. 0. 1. 128. 127. 0. 1. 253. 128. 0. 0.
      1. 0. 128. 128. 0. 0. 255. 128. 0. 0. 0. 1. 127. 128. 1. 1. 254.
      128. 0. 0. 1. 1. 128. 140. 1. 1. 255. 37. 0. 0. 1. 1. 127. 255.
      90. 173. 254. 26. 0. 0. 1. 1. 16. 234. 255. 254. 173. 1. 0. 0.</_>
    <_>
      1. 1. 2. 105. 236. 254. 215. 24. 0. 0. 0. 1. 100. 231. 80. 80.
      232. 168. 0. 0. 0. 1. 185. 191. 0. 2. 95. 241. 0. 0. 1. 1. 242.
      151. 1. 0. 115. 242. 0. 0. 0. 0. 242. 191. 0. 1. 191. 242. 0. 0.
      1. 1. 241. 89. 0. 1. 191. 241. 0. 0. 0. 0. 242. 130. 1. 0. 191.
      201. 0. 0. 0. 0. 242. 90. 1. 1. 190. 128. 0. 0. 1. 1. 243. 171.
      10. 51. 232. 128. 0. 0. 0. 2. 88. 215. 222. 238. 215. 25. 0. 0.</_>
    <_>
      1. 1. 3. 254. 245. 112. 7. 0. 0. 0. 1. 1. 61. 254. 155. 173. 226.
      2. 0. 0. 1. 1. 158. 238. 2. 42. 254. 3. 0. 0. 0. 1. 141. 239. 1.
      21. 247. 102. 0. 0. 0. 0. 128. 239. 1. 5. 240. 85. 0. 0. 0. 0.
      128. 239. 0. 21. 247. 128. 0. 0. 0. 0. 128. 239. 1. 1. 238. 128.
      0. 0. 0. 0. 128. 239. 1. 21. 248. 65. 0. 0. 0. 1. 2. 237. 196.
      241. 204. 1. 0. 0. 1. 1. 0. 57. 194. 134. 53. 1. 0. 0.</_>
    <_>
      0. 0. 8. 220. 255. 254. 233. 16. 0. 0. 1. 1. 47. 255. 61. 39. 229.
      128. 0. 0. 1. 1. 128. 254. 1. 1. 128. 128. 0. 0. 1. 1. 128. 255.
      0. 1. 128. 128. 0. 0. 0. 0. 128. 254. 1. 1. 128. 127. 0. 0. 1. 1.
      128. 255. 1. 1. 128. 127. 0. 0. 1. 1. 26. 255. 0. 1. 128. 128. 0.
      0. 0. 1. 26. 254. 46. 8. 241. 117. 0. 0. 0. 1. 14. 228. 235. 219.
      255. 26. 0. 0. 1. 0. 1. 100. 224. 255. 99. 1. 0. 0.</_>
    <_>
      1. 1. 101. 254. 255. 254. 153. 25. 1. 1. 1. 90. 254. 218. 112.
      147. 250. 211. 13. 1. 1. 143. 254. 86. 2. 1. 133. 255. 23. 0. 2.
      143. 231. 30. 0. 1. 87. 254. 23. 1. 0. 144. 220. 0. 0. 0. 86. 255.
      23. 2. 0. 144. 220. 0. 0. 0. 86. 255. 57. 2. 0. 144. 220. 0. 0. 0.
      86. 255. 103. 0. 0. 144. 220. 0. 0. 0. 86. 255. 23. 1. 0. 143.
      252. 132. 1. 1. 196. 254. 23. 0. 1. 18. 206. 252. 245. 245. 253.
      101. 2. 2.</_>
    <_>
      2. 1. 69. 254. 254. 255. 195. 69. 1. 1. 2. 18. 225. 254. 212. 188.
      250. 242. 47. 1. 0. 68. 253. 242. 16. 1. 239. 255. 68. 0. 0. 67.
      255. 239. 2. 1. 238. 254. 67. 1. 0. 68. 255. 239. 1. 0. 239. 255.
      67. 0. 1. 68. 255. 239. 1. 0. 239. 255. 67. 0. 1. 68. 254. 239. 1.
      0. 239. 255. 67. 0. 0. 56. 248. 239. 1. 0. 239. 255. 67. 0. 0. 1.
      180. 251. 188. 188. 251. 224. 19. 1. 2. 1. 13. 143. 254. 254. 195.
      69. 2. 1.</_>
    <_>
      2. 0. 1. 19. 150. 214. 71. 1. 0. 0. 1. 1. 1. 202. 203. 164. 247.
      0. 0. 0. 1. 0. 0. 254. 7. 1. 222. 109. 0. 0. 0. 2. 1. 255. 7. 1.
      223. 109. 0. 0. 0. 0. 1. 255. 7. 0. 223. 109. 0. 0. 0. 0. 1. 255.
      7. 0. 223. 55. 0. 0. 0. 0. 1. 255. 7. 2. 223. 85. 0. 0. 0. 0. 1.
      255. 7. 2. 222. 0. 0. 0. 0. 0. 1. 253. 21. 4. 239. 30. 0. 0. 0. 1.
      1. 213. 252. 188. 203. 1. 0. 0.</_>
    <_>
      1. 1. 1. 96. 254. 255. 103. 1. 0. 0. 1. 1. 0. 254. 119. 117. 254.
      1. 0. 0. 1. 1. 0. 255. 61. 60. 255. 1. 0. 0. 1. 1. 0. 255. 1. 61.
      255. 0. 0. 0. 0. 0. 0. 254. 1. 62. 254. 1. 0. 0. 0. 1. 67. 255. 0.
      61. 254. 1. 0. 0. 1. 2. 29. 255. 2. 61. 199. 1. 0. 0. 0. 1. 72.
      254. 1. 64. 156. 0. 0. 0. 1. 0. 1. 236. 117. 229. 148. 1. 0. 0. 1.
      1. 1. 96. 255. 233. 0. 2. 0. 0.</_>
    <_>
      1. 1. 1. 134. 255. 254. 214. 25. 1. 0. 0. 1. 100. 254. 214. 178.
      255. 213. 1. 0. 1. 1. 184. 226. 27. 3. 190. 248. 45. 0. 0. 1. 213.
      255. 38. 2. 90. 255. 90. 1. 1. 1. 225. 255. 38. 0. 90. 254. 89. 1.
      1. 2. 241. 219. 18. 0. 191. 242. 0. 2. 1. 2. 242. 191. 1. 1. 155.
      242. 1. 1. 1. 0. 236. 223. 25. 8. 143. 241. 1. 0. 2. 1. 99. 254.
      214. 215. 254. 213. 0. 0. 1. 1. 7. 169. 255. 255. 169. 25. 0. 0.</_>
    <_>
      1. 0. 1. 99. 251. 253. 132. 1. 0. 0. 1. 1. 1. 247. 22. 72. 254. 0.
      0. 0. 1. 1. 47. 222. 1. 1. 223. 47. 0. 0. 1. 2. 95. 223. 0. 1.
      223. 96. 0. 0. 0. 1. 0. 223. 1. 1. 223. 0. 0. 0. 1. 1. 1. 222. 1.
      0. 223. 54. 0. 0. 1. 1. 1. 222. 0. 2. 222. 109. 0. 0. 2. 1. 1.
      255. 7. 1. 223. 109. 0. 0. 1. 2. 1. 255. 22. 5. 238. 109. 0. 0. 1.
      1. 1. 204. 252. 248. 236. 3. 0. 0.</_>
    <_>
      1. 1. 55. 254. 46. 109. 176. 2. 0. 0. 1. 0. 110. 222. 1. 8. 253.
      1. 0. 0. 2. 0. 109. 222. 1. 8. 255. 1. 0. 0. 1. 1. 1. 223. 0. 4.
      238. 1. 0. 0. 1. 1. 1. 222. 1. 1. 222. 1. 0. 0. 1. 0. 1. 222. 2.
      1. 223. 1. 0. 0. 1. 1. 0. 223. 1. 2. 228. 71. 0. 0. 1. 1. 1. 236.
      4. 1. 222. 1. 0. 0. 1. 1. 1. 247. 22. 20. 247. 1. 0. 0. 1. 1. 1.
      131. 252. 252. 177. 0. 0. 0.</_>
    <_>
      1. 1. 1. 100. 230. 187. 144. 19. 1. 0. 1. 1. 42. 251. 81. 8. 178.
      161. 0. 0. 1. 1. 83. 223. 1. 1. 128. 227. 4. 1. 1. 0. 83. 223. 1.
      1. 128. 255. 7. 1. 0. 1. 83. 223. 0. 1. 128. 255. 7. 0. 1. 1. 84.
      223. 0. 1. 128. 255. 7. 0. 1. 1. 84. 223. 0. 1. 128. 255. 7. 0. 1.
      1. 112. 224. 0. 1. 128. 255. 7. 0. 1. 1. 84. 239. 40. 7. 179. 163.
      0. 0. 2. 1. 19. 158. 231. 211. 253. 48. 0. 0.</_>
    <_>
      1. 0. 74. 255. 169. 174. 255. 74. 0. 0. 1. 1. 108. 247. 20. 5.
      237. 146. 0. 0. 0. 1. 109. 222. 1. 1. 182. 146. 0. 0. 1. 1. 109.
      223. 0. 1. 202. 147. 0. 0. 0. 1. 109. 234. 3. 1. 222. 146. 0. 0.
      2. 0. 109. 233. 3. 1. 175. 146. 0. 0. 0. 0. 109. 222. 2. 1. 128.
      146. 0. 0. 1. 0. 125. 222. 0. 1. 128. 146. 0. 0. 1. 0. 96. 247.
      81. 18. 238. 128. 0. 0. 1. 1. 1. 203. 255. 252. 214. 55. 0. 0.</_>
    <_>
      1. 1. 1. 52. 238. 238. 140. 24. 0. 0. 0. 1. 9. 232. 179. 119. 232.
      168. 0. 0. 0. 1. 122. 250. 36. 1. 140. 242. 0. 0. 1. 1. 128. 206.
      10. 0. 90. 242. 0. 0. 1. 0. 76. 254. 38. 0. 90. 242. 0. 0. 1. 0.
      13. 254. 38. 0. 90. 243. 0. 0. 1. 1. 14. 255. 38. 1. 90. 242. 0.
      0. 1. 1. 14. 254. 44. 0. 90. 242. 0. 0. 1. 1. 5. 196. 214. 124.
      196. 213. 0. 0. 0. 0. 1. 25. 124. 237. 140. 25. 0. 0.</_>
    <_>
      0. 1. 10. 90. 206. 205. 82. 0. 0. 0. 2. 0. 125. 255. 233. 234.
      245. 81. 0. 0. 1. 1. 207. 192. 2. 0. 235. 164. 0. 0. 1. 1. 255.
      143. 1. 1. 143. 255. 0. 0. 0. 0. 255. 144. 1. 1. 255. 234. 0. 0.
      0. 0. 255. 144. 1. 0. 253. 144. 0. 0. 0. 0. 255. 144. 1. 1. 253.
      142. 0. 0. 0. 0. 255. 144. 1. 1. 255. 143. 0. 0. 0. 1. 191. 255.
      143. 191. 255. 125. 0. 0. 0. 2. 47. 191. 255. 255. 125. 10. 0. 0.</_>
    <_>
      1. 1. 45. 192. 254. 254. 125. 10. 0. 0. 1. 1. 234. 206. 49. 90.
      254. 48. 0. 0. 2. 1. 254. 48. 1. 2. 254. 143. 0. 0. 1. 1. 255. 48.
      0. 1. 255. 143. 0. 0. 0. 2. 255. 49. 1. 1. 255. 144. 0. 0. 0. 2.
      255. 47. 1. 1. 255. 143. 0. 0. 1. 1. 255. 48. 1. 1. 255. 49. 0. 0.
      1. 1. 254. 90. 1. 0. 255. 48. 0. 0. 1. 1. 175. 255. 143. 192. 245.
      39. 0. 0. 2. 1. 9. 125. 254. 164. 39. 1. 0. 0.</_>
    <_>
      0. 1. 3. 133. 238. 238. 215. 25. 0. 0. 1. 1. 99. 172. 36. 36. 171.
      168. 0. 0. 1. 1. 133. 89. 2. 1. 90. 242. 0. 0. 1. 1. 242. 89. 1.
      2. 89. 242. 0. 0. 0. 0. 242. 90. 1. 1. 89. 242. 0. 0. 1. 0. 243.
      88. 1. 2. 90. 179. 0. 0. 0. 1. 242. 91. 0. 2. 90. 128. 0. 0. 1. 1.
      235. 96. 1. 1. 95. 128. 0. 0. 0. 1. 99. 232. 80. 79. 232. 99. 0.
      0. 0. 1. 2. 105. 192. 192. 105. 3. 0. 0.</_>
    <_>
      0. 2. 1. 190. 254. 255. 254. 128. 0. 1. 1. 0. 191. 255. 64. 1. 64.
      255. 128. 2. 1. 1. 255. 128. 1. 0. 0. 255. 128. 1. 1. 2. 254. 128.
      1. 0. 1. 255. 128. 1. 0. 0. 255. 128. 0. 0. 1. 255. 128. 0. 0. 0.
      255. 128. 0. 0. 1. 255. 128. 0. 0. 0. 255. 128. 0. 0. 1. 255. 128.
      0. 0. 0. 255. 128. 0. 0. 1. 255. 128. 0. 0. 1. 191. 191. 65. 1.
      64. 255. 128. 1. 1. 1. 1. 191. 254. 255. 255. 127. 1. 0.</_>
    <_>
      1. 1. 0. 50. 140. 238. 140. 42. 1. 1. 1. 1. 51. 233. 255. 254.
      255. 251. 67. 0. 1. 2. 133. 255. 94. 13. 143. 254. 89. 1. 1. 0.
      243. 254. 39. 1. 90. 255. 90. 1. 0. 1. 242. 225. 22. 0. 89. 254.
      89. 0. 1. 1. 241. 201. 8. 1. 90. 254. 89. 0. 0. 1. 241. 255. 38.
      1. 90. 255. 89. 0. 1. 1. 242. 255. 40. 1. 94. 255. 89. 0. 1. 1.
      213. 255. 178. 165. 232. 246. 32. 1. 0. 1. 24. 169. 254. 254. 214.
      42. 1. 1.</_>
    <_>
      1. 0. 0. 29. 197. 254. 135. 1. 0. 0. 1. 2. 3. 215. 207. 128. 251.
      106. 0. 0. 0. 1. 39. 254. 58. 0. 192. 127. 0. 0. 1. 0. 38. 254. 1.
      1. 191. 127. 0. 0. 0. 0. 38. 255. 0. 1. 191. 127. 0. 0. 0. 0. 38.
      255. 1. 1. 191. 128. 0. 0. 0. 0. 38. 255. 1. 1. 190. 127. 0. 0. 0.
      0. 38. 255. 18. 0. 201. 128. 0. 0. 0. 1. 20. 220. 207. 127. 252.
      34. 0. 0. 1. 1. 1. 30. 142. 183. 71. 1. 0. 0.</_>
    <_>
      1. 1. 0. 1. 131. 253. 138. 8. 0. 0. 2. 0. 5. 177. 150. 128. 253.
      127. 0. 0. 0. 2. 26. 253. 0. 1. 140. 128. 0. 0. 1. 0. 26. 255. 1.
      1. 128. 128. 0. 0. 0. 0. 26. 255. 0. 1. 128. 128. 0. 0. 0. 0. 26.
      255. 0. 1. 128. 128. 0. 0. 0. 0. 26. 255. 0. 1. 128. 128. 0. 0. 0.
      0. 26. 255. 0. 1. 128. 128. 0. 0. 0. 1. 14. 228. 99. 38. 229. 128.
      0. 0. 1. 0. 1. 100. 254. 254. 203. 16. 0. 0.</_>
    <_>
      1. 0. 2. 131. 253. 251. 203. 0. 0. 0. 1. 1. 1. 226. 26. 19. 217.
      95. 0. 0. 1. 1. 1. 223. 1. 1. 127. 109. 0. 0. 2. 2. 1. 223. 1. 1.
      139. 108. 0. 0. 1. 1. 1. 223. 0. 0. 223. 109. 0. 0. 1. 0. 1. 222.
      0. 1. 223. 109. 0. 0. 0. 1. 1. 230. 3. 0. 223. 109. 0. 0. 1. 2. 1.
      236. 3. 1. 223. 109. 0. 0. 0. 1. 1. 247. 21. 19. 238. 96. 0. 0. 0.
      1. 0. 176. 252. 252. 203. 2. 0. 0.</_>
    <_>
      0. 11. 207. 255. 254. 219. 89. 2. 0. 0. 1. 91. 254. 239. 232. 239.
      255. 102. 0. 0. 0. 142. 250. 76. 1. 75. 254. 155. 0. 0. 0. 144.
      219. 1. 0. 74. 255. 156. 0. 0. 1. 144. 219. 1. 1. 23. 220. 179. 6.
      0. 1. 144. 220. 1. 2. 56. 244. 255. 22. 1. 1. 142. 219. 1. 0. 74.
      255. 174. 5. 0. 0. 143. 233. 34. 1. 75. 255. 156. 0. 1. 1. 90.
      255. 218. 113. 153. 253. 103. 0. 0. 1. 12. 147. 255. 254. 255.
      112. 2. 0. 0.</_>
    <_>
      1. 1. 10. 126. 206. 164. 81. 1. 0. 0. 0. 1. 49. 254. 89. 48. 246.
      39. 0. 0. 1. 0. 143. 144. 1. 2. 192. 49. 0. 0. 1. 1. 143. 143. 1.
      1. 143. 49. 0. 0. 0. 0. 144. 144. 1. 0. 144. 48. 0. 0. 0. 0. 144.
      144. 1. 0. 234. 49. 0. 0. 0. 0. 144. 144. 1. 1. 165. 47. 0. 0. 0.
      0. 144. 144. 1. 1. 255. 48. 0. 0. 0. 1. 126. 206. 49. 90. 227. 22.
      0. 0. 1. 2. 10. 125. 163. 165. 40. 1. 0. 0.</_>
    <_>
      1. 76. 230. 248. 150. 150. 248. 255. 49. 1. 1. 150. 254. 77. 1. 0.
      78. 255. 118. 1. 0. 174. 255. 54. 1. 1. 53. 255. 175. 1. 1. 118.
      253. 76. 0. 1. 54. 255. 175. 1. 1. 118. 254. 116. 1. 0. 54. 255.
      175. 0. 0. 119. 254. 128. 2. 1. 55. 254. 175. 0. 1. 119. 254. 128.
      1. 0. 44. 254. 175. 0. 1. 118. 255. 183. 1. 1. 27. 252. 175. 0. 0.
      1. 234. 255. 196. 137. 247. 255. 81. 0. 0. 1. 1. 134. 239. 255.
      208. 79. 1. 1.</_>
    <_>
      1. 1. 1. 134. 255. 255. 133. 1. 0. 0. 1. 1. 84. 253. 157. 156.
      255. 83. 0. 0. 1. 0. 127. 254. 1. 2. 200. 128. 0. 0. 0. 0. 128.
      255. 1. 1. 192. 172. 0. 0. 1. 1. 38. 254. 1. 1. 190. 215. 0. 0. 1.
      2. 39. 254. 115. 1. 128. 217. 0. 0. 1. 1. 39. 255. 115. 1. 128.
      217. 0. 0. 1. 1. 19. 249. 202. 38. 169. 217. 0. 0. 1. 0. 1. 86.
      255. 254. 254. 150. 0. 0. 1. 2. 14. 90. 254. 254. 243. 2. 0. 0.</_>
    <_>
      1. 1. 76. 254. 255. 255. 215. 25. 1. 1. 2. 1. 214. 233. 120. 78.
      198. 213. 0. 1. 1. 1. 242. 190. 1. 0. 89. 254. 85. 1. 1. 1. 213.
      190. 0. 1. 90. 255. 91. 1. 1. 1. 128. 191. 0. 0. 90. 254. 90. 1.
      1. 1. 144. 191. 0. 1. 90. 254. 90. 0. 2. 0. 157. 191. 0. 1. 89.
      255. 90. 1. 1. 1. 230. 191. 0. 1. 94. 242. 6. 1. 0. 1. 202. 233.
      80. 63. 207. 213. 0. 0. 1. 1. 145. 255. 254. 254. 169. 24. 0. 0.</_>
    <_>
      0. 0. 1. 191. 255. 254. 254. 191. 64. 1. 1. 1. 254. 255. 128. 128.
      191. 253. 254. 1. 1. 64. 255. 190. 1. 1. 1. 255. 254. 2. 0. 128.
      255. 128. 1. 0. 2. 255. 254. 0. 0. 128. 255. 128. 0. 1. 127. 255.
      254. 1. 1. 190. 254. 127. 2. 0. 128. 254. 191. 1. 1. 254. 255.
      127. 1. 1. 127. 254. 127. 1. 1. 254. 255. 65. 1. 1. 191. 255. 128.
      1. 0. 191. 255. 255. 127. 191. 255. 191. 0. 0. 1. 1. 127. 254.
      255. 254. 191. 64. 0. 0.</_>
    <_>
      1. 1. 64. 254. 254. 255. 255. 190. 0. 1. 1. 1. 191. 254. 64. 1.
      64. 254. 128. 2. 1. 1. 255. 191. 1. 1. 1. 254. 128. 1. 0. 1. 254.
      128. 1. 1. 1. 255. 128. 1. 2. 1. 255. 128. 1. 0. 1. 255. 128. 0.
      1. 1. 254. 127. 1. 1. 0. 254. 128. 0. 0. 1. 254. 128. 1. 0. 1.
      254. 128. 0. 1. 1. 254. 192. 0. 1. 65. 254. 128. 0. 1. 0. 191.
      255. 127. 127. 254. 255. 65. 0. 1. 1. 1. 127. 127. 254. 191. 64.
      1. 2.</_>
    <_>
      2. 1. 6. 114. 191. 254. 159. 14. 1. 1. 0. 1. 142. 254. 234. 213.
      254. 228. 29. 0. 1. 13. 204. 228. 45. 6. 185. 255. 45. 1. 1. 45.
      255. 159. 1. 0. 65. 255. 45. 0. 1. 44. 254. 159. 1. 0. 45. 254.
      45. 0. 0. 46. 254. 159. 2. 1. 45. 255. 45. 0. 0. 45. 255. 159. 1.
      1. 96. 255. 45. 0. 2. 46. 254. 185. 6. 0. 77. 254. 45. 0. 1. 7.
      196. 254. 159. 158. 238. 229. 28. 1. 1. 2. 46. 234. 255. 255. 232.
      97. 1. 1.</_>
    <_>
      1. 1. 22. 154. 254. 220. 90. 1. 0. 0. 2. 13. 212. 217. 112. 147.
      251. 46. 0. 0. 1. 22. 255. 86. 1. 1. 205. 82. 0. 0. 1. 23. 254.
      86. 1. 1. 207. 115. 0. 0. 0. 23. 255. 86. 1. 1. 207. 156. 0. 0. 0.
      23. 255. 86. 1. 1. 206. 121. 0. 0. 0. 23. 255. 86. 2. 1. 207. 133.
      0. 0. 0. 23. 255. 86. 1. 1. 207. 51. 0. 0. 1. 23. 254. 139. 1.
      120. 250. 35. 0. 0. 1. 1. 101. 252. 245. 252. 114. 2. 0. 0.</_>
    <_>
      1. 2. 1. 70. 214. 255. 184. 18. 0. 0. 1. 1. 21. 248. 247. 128.
      253. 127. 0. 0. 1. 0. 39. 254. 115. 1. 137. 128. 0. 0. 1. 0. 20.
      248. 115. 1. 19. 128. 0. 0. 1. 1. 1. 242. 115. 0. 13. 128. 0. 0.
      1. 1. 1. 242. 166. 1. 14. 127. 0. 0. 1. 1. 1. 242. 165. 1. 7. 109.
      0. 0. 1. 1. 1. 185. 210. 14. 7. 109. 0. 0. 1. 0. 1. 96. 255. 195.
      213. 128. 0. 0. 0. 1. 1. 2. 175. 254. 255. 128. 0. 0.</_>
    <_>
      0. 1. 1. 60. 191. 236. 239. 222. 32. 1. 1. 2. 45. 238. 159. 1. 18.
      211. 159. 1. 1. 1. 70. 255. 19. 1. 1. 185. 160. 1. 0. 1. 164. 176.
      4. 2. 2. 184. 116. 1. 1. 0. 185. 159. 2. 1. 42. 250. 45. 0. 1. 0.
      186. 159. 1. 1. 44. 254. 45. 1. 1. 28. 227. 140. 0. 1. 46. 242.
      38. 0. 1. 45. 255. 76. 1. 1. 128. 185. 1. 1. 1. 28. 228. 195. 97.
      104. 222. 64. 0. 0. 1. 0. 46. 133. 246. 133. 59. 1. 0. 0.</_>
    <_>
      0. 1. 45. 233. 143. 125. 16. 1. 0. 0. 1. 8. 197. 255. 255. 254.
      239. 64. 0. 0. 1. 45. 254. 186. 70. 85. 254. 185. 0. 0. 1. 45.
      255. 65. 1. 20. 254. 184. 0. 0. 0. 45. 255. 44. 1. 10. 209. 185.
      0. 1. 1. 46. 253. 45. 1. 11. 208. 253. 46. 1. 1. 45. 254. 45. 0.
      21. 254. 211. 18. 0. 1. 46. 254. 76. 1. 19. 255. 185. 1. 2. 2. 28.
      228. 238. 104. 108. 254. 141. 0. 0. 1. 1. 97. 233. 255. 254. 159.
      6. 0. 0.</_>
    <_>
      1. 2. 27. 212. 254. 255. 212. 83. 2. 1. 1. 32. 255. 250. 232. 232.
      251. 254. 33. 1. 0. 143. 254. 207. 2. 0. 207. 254. 144. 0. 2. 143.
      254. 207. 1. 0. 127. 255. 143. 1. 0. 143. 254. 122. 0. 1. 87. 255.
      144. 0. 1. 108. 255. 87. 1. 1. 144. 254. 144. 0. 1. 23. 253. 184.
      1. 1. 144. 255. 144. 0. 1. 23. 255. 150. 0. 1. 133. 254. 144. 0.
      1. 22. 255. 228. 112. 146. 250. 255. 32. 1. 1. 1. 84. 213. 254.
      254. 153. 84. 1. 1.</_>
    <_>
      1. 2. 45. 234. 229. 228. 174. 10. 0. 0. 2. 1. 143. 206. 21. 22.
      206. 125. 0. 0. 1. 1. 254. 143. 1. 1. 143. 144. 0. 0. 1. 0. 165.
      144. 2. 0. 143. 143. 0. 0. 1. 1. 144. 144. 1. 1. 143. 143. 0. 0.
      1. 1. 143. 142. 1. 2. 143. 144. 0. 0. 1. 1. 142. 144. 2. 0. 145.
      185. 0. 0. 1. 1. 144. 233. 1. 0. 191. 143. 0. 0. 1. 1. 39. 247.
      255. 212. 254. 143. 0. 0. 0. 2. 0. 165. 255. 255. 143. 46. 0. 0.</_>
    <_>
      2. 0. 1. 19. 198. 213. 72. 1. 0. 0. 1. 1. 1. 202. 203. 191. 248.
      0. 0. 0. 1. 0. 0. 254. 8. 4. 242. 108. 0. 0. 0. 2. 1. 255. 6. 1.
      222. 25. 0. 0. 0. 0. 1. 255. 7. 1. 222. 0. 0. 0. 0. 0. 1. 255. 7.
      5. 244. 0. 0. 0. 0. 0. 1. 255. 7. 6. 255. 1. 0. 0. 0. 0. 1. 255.
      6. 7. 255. 1. 0. 0. 0. 1. 1. 248. 133. 163. 246. 1. 0. 0. 1. 1. 1.
      144. 254. 255. 132. 1. 0. 0.</_>
    <_>
      1. 1. 0. 171. 254. 255. 254. 60. 0. 0. 1. 2. 60. 255. 172. 36.
      255. 135. 0. 0. 1. 1. 96. 253. 36. 1. 195. 159. 0. 0. 0. 0. 60.
      254. 0. 0. 195. 160. 0. 0. 0. 0. 96. 255. 1. 36. 255. 159. 0. 0.
      0. 0. 96. 255. 0. 36. 254. 135. 0. 0. 0. 0. 96. 255. 1. 0. 255.
      96. 0. 0. 0. 0. 96. 255. 1. 36. 254. 96. 0. 0. 1. 0. 60. 255. 170.
      171. 254. 60. 0. 0. 1. 2. 0. 136. 253. 255. 171. 0. 0. 0.</_>
    <_>
      1. 1. 32. 217. 254. 202. 96. 1. 0. 0. 2. 1. 196. 205. 18. 72. 242.
      59. 0. 0. 1. 1. 201. 94. 1. 2. 211. 119. 0. 0. 0. 2. 200. 92. 1.
      1. 175. 44. 0. 0. 1. 1. 201. 93. 1. 1. 174. 117. 0. 0. 1. 1. 200.
      94. 1. 1. 174. 119. 0. 0. 0. 1. 201. 149. 1. 1. 175. 118. 0. 0. 1.
      1. 200. 137. 1. 1. 192. 119. 0. 0. 2. 1. 69. 241. 178. 211. 249.
      14. 0. 0. 1. 2. 1. 76. 201. 109. 44. 0. 0. 0.</_>
    <_>
      0. 0. 64. 127. 254. 254. 254. 191. 0. 1. 1. 1. 255. 254. 254. 255.
      254. 255. 128. 1. 0. 128. 254. 254. 128. 1. 0. 254. 255. 1. 1.
      128. 254. 254. 1. 0. 1. 254. 255. 1. 1. 127. 255. 254. 64. 1. 1.
      254. 255. 1. 1. 128. 255. 255. 128. 0. 2. 255. 255. 1. 2. 64. 255.
      255. 1. 1. 1. 254. 255. 1. 1. 128. 255. 254. 128. 1. 1. 255. 255.
      1. 1. 0. 255. 255. 254. 128. 191. 254. 191. 1. 0. 0. 65. 191. 255.
      254. 254. 191. 1. 1.</_>
    <_>
      1. 1. 0. 98. 226. 154. 118. 45. 1. 1. 1. 1. 212. 252. 172. 149.
      222. 229. 44. 1. 0. 94. 251. 184. 7. 1. 57. 254. 105. 1. 1. 105.
      255. 106. 1. 1. 42. 254. 106. 1. 1. 106. 255. 175. 1. 1. 42. 254.
      105. 0. 1. 105. 255. 146. 1. 0. 43. 254. 105. 0. 1. 106. 254. 134.
      1. 1. 41. 255. 105. 0. 1. 105. 254. 175. 1. 1. 58. 253. 105. 0. 1.
      44. 230. 221. 114. 114. 221. 230. 44. 1. 1. 1. 44. 161. 254. 255.
      161. 43. 1. 1.</_>
    <_>
      1. 1. 3. 104. 237. 236. 141. 24. 1. 2. 0. 0. 99. 255. 214. 179.
      254. 218. 32. 1. 1. 1. 133. 255. 43. 4. 143. 255. 89. 1. 1. 0.
      241. 254. 39. 1. 90. 254. 90. 1. 1. 1. 242. 255. 38. 1. 89. 255.
      89. 0. 1. 1. 242. 255. 38. 1. 89. 255. 89. 0. 1. 0. 156. 254. 38.
      0. 90. 255. 89. 0. 0. 1. 180. 254. 44. 1. 94. 254. 89. 0. 1. 0.
      100. 254. 215. 165. 233. 251. 68. 1. 1. 1. 2. 106. 238. 254. 255.
      92. 2. 1.</_>
    <_>
      1. 2. 1. 176. 116. 108. 225. 1. 0. 0. 1. 1. 1. 227. 1. 1. 201. 1.
      0. 0. 0. 1. 1. 222. 1. 1. 223. 1. 0. 0. 0. 1. 1. 222. 2. 2. 223.
      1. 0. 0. 0. 0. 0. 223. 1. 1. 223. 1. 0. 0. 0. 0. 0. 223. 1. 1.
      206. 1. 0. 0. 0. 0. 0. 223. 1. 2. 223. 1. 0. 0. 0. 0. 0. 223. 1.
      1. 223. 1. 0. 0. 1. 1. 1. 220. 16. 19. 238. 1. 0. 0. 1. 1. 1. 163.
      252. 250. 177. 1. 0. 0.</_>
    <_>
      1. 0. 1. 149. 36. 214. 152. 1. 0. 0. 1. 1. 152. 246. 11. 119. 255.
      111. 0. 0. 1. 1. 201. 175. 0. 2. 218. 157. 0. 0. 1. 0. 200. 175.
      1. 0. 175. 118. 0. 0. 1. 1. 201. 161. 1. 2. 215. 118. 0. 0. 2. 1.
      199. 162. 1. 4. 255. 118. 0. 0. 1. 1. 199. 119. 1. 3. 254. 118. 0.
      0. 1. 0. 200. 176. 1. 4. 255. 93. 0. 0. 0. 1. 128. 214. 18. 73.
      255. 1. 0. 0. 1. 1. 31. 183. 255. 166. 119. 1. 0. 0.</_>
    <_>
      0. 1. 2. 113. 248. 245. 250. 147. 12. 1. 1. 1. 102. 228. 33. 1.
      79. 252. 23. 1. 1. 4. 169. 134. 2. 0. 54. 240. 23. 0. 1. 22. 255.
      86. 1. 0. 86. 255. 23. 1. 0. 22. 254. 87. 1. 1. 87. 231. 17. 0. 1.
      57. 228. 21. 1. 1. 177. 156. 1. 0. 1. 143. 220. 1. 2. 1. 208. 156.
      1. 1. 1. 143. 219. 1. 0. 30. 225. 109. 0. 1. 1. 143. 236. 38. 27.
      153. 217. 21. 0. 0. 1. 17. 206. 248. 247. 160. 30. 1. 0. 0.</_>
    <_>
      1. 2. 1. 95. 254. 233. 75. 1. 0. 0. 1. 1. 11. 255. 110. 152. 205.
      1. 0. 0. 1. 1. 73. 254. 1. 31. 255. 1. 0. 0. 0. 1. 74. 254. 1. 62.
      254. 1. 0. 0. 1. 1. 73. 255. 0. 61. 255. 0. 0. 0. 1. 0. 74. 153.
      0. 61. 255. 0. 0. 0. 1. 2. 74. 143. 0. 61. 255. 0. 0. 0. 1. 2. 74.
      147. 0. 61. 255. 0. 0. 0. 1. 1. 61. 254. 48. 142. 205. 0. 0. 0. 1.
      1. 1. 191. 254. 235. 74. 1. 0. 0.</_>
    <_>
      1. 1. 9. 138. 255. 254. 138. 8. 0. 0. 2. 1. 128. 255. 173. 150.
      255. 98. 0. 0. 1. 1. 218. 242. 1. 1. 255. 229. 0. 0. 1. 1. 229.
      229. 0. 1. 254. 229. 0. 0. 0. 1. 230. 202. 0. 1. 254. 229. 0. 0.
      1. 1. 229. 166. 1. 0. 217. 230. 0. 0. 0. 1. 200. 254. 1. 1. 127.
      178. 0. 0. 1. 1. 229. 255. 1. 1. 179. 127. 0. 0. 0. 1. 148. 254.
      1. 2. 229. 127. 0. 0. 1. 1. 46. 234. 224. 223. 220. 8. 0. 0.</_>
    <_>
      1. 0. 86. 215. 254. 254. 169. 7. 1. 1. 1. 31. 247. 254. 214. 214.
      254. 144. 32. 0. 2. 90. 254. 223. 25. 43. 255. 253. 90. 1. 0. 89.
      255. 191. 1. 39. 254. 251. 68. 0. 1. 89. 254. 191. 1. 39. 255.
      241. 0. 1. 1. 90. 254. 190. 1. 38. 255. 244. 14. 1. 1. 90. 254.
      190. 2. 38. 255. 250. 58. 0. 0. 89. 255. 222. 30. 50. 254. 241. 2.
      1. 0. 32. 247. 255. 255. 254. 254. 213. 0. 0. 0. 2. 87. 214. 255.
      254. 169. 24. 0. 0.</_>
    <_>
      0. 1. 2. 81. 164. 206. 126. 27. 0. 0. 1. 0. 80. 246. 192. 143.
      254. 235. 0. 0. 1. 1. 143. 255. 1. 2. 91. 254. 0. 0. 1. 0. 143.
      206. 0. 1. 48. 255. 0. 0. 1. 1. 164. 143. 2. 1. 101. 254. 0. 0. 1.
      1. 163. 143. 2. 1. 143. 255. 0. 0. 0. 2. 254. 143. 1. 1. 144. 254.
      0. 0. 1. 1. 254. 192. 1. 1. 143. 254. 0. 0. 1. 1. 82. 246. 255.
      254. 255. 125. 0. 0. 1. 1. 1. 81. 206. 255. 89. 9. 0. 0.</_>
    <_>
      1. 1. 69. 195. 255. 254. 144. 12. 0. 0. 0. 18. 225. 134. 79. 120.
      250. 105. 0. 0. 1. 68. 253. 4. 1. 1. 147. 195. 0. 0. 1. 67. 255.
      4. 2. 1. 176. 214. 0. 0. 1. 67. 254. 3. 1. 1. 128. 214. 0. 0. 0.
      68. 255. 4. 1. 1. 127. 214. 0. 0. 2. 67. 254. 4. 0. 2. 128. 213.
      0. 0. 0. 66. 255. 24. 1. 1. 146. 213. 0. 0. 1. 19. 225. 215. 81.
      80. 243. 101. 0. 0. 1. 1. 69. 196. 254. 255. 89. 1. 0. 0.</_>
    <_>
      1. 0. 1. 57. 173. 174. 56. 1. 0. 0. 1. 1. 2. 230. 108. 128. 238.
      2. 0. 0. 1. 1. 128. 239. 2. 2. 238. 95. 0. 0. 0. 1. 128. 232. 2.
      2. 239. 128. 0. 0. 0. 1. 128. 127. 1. 1. 238. 24. 0. 0. 1. 1. 128.
      128. 0. 1. 239. 4. 0. 0. 2. 1. 128. 128. 1. 1. 239. 57. 0. 0. 0.
      1. 128. 238. 1. 1. 239. 4. 0. 0. 1. 1. 61. 247. 89. 127. 237. 2.
      0. 0. 1. 1. 1. 118. 255. 240. 82. 1. 0. 0.</_>
    <_>
      1. 1. 23. 154. 252. 248. 212. 22. 1. 1. 2. 0. 156. 218. 86. 34.
      152. 208. 13. 1. 2. 15. 216. 87. 1. 1. 1. 220. 23. 0. 1. 23. 255.
      86. 1. 1. 17. 226. 22. 1. 0. 23. 255. 86. 0. 0. 86. 255. 22. 0. 0.
      23. 255. 86. 0. 0. 86. 255. 22. 0. 0. 23. 255. 86. 0. 0. 86. 255.
      22. 0. 0. 23. 255. 86. 0. 0. 86. 255. 23. 0. 1. 2. 165. 217. 32.
      86. 161. 210. 14. 1. 2. 2. 22. 131. 212. 218. 130. 23. 1. 1.</_>
    <_>
      1. 0. 0. 40. 192. 255. 157. 19. 0. 0. 1. 1. 1. 188. 116. 33. 224.
      161. 0. 0. 1. 1. 1. 249. 58. 1. 128. 171. 0. 0. 0. 1. 2. 249. 59.
      1. 128. 172. 0. 0. 1. 1. 1. 224. 13. 1. 128. 172. 0. 0. 1. 1. 1.
      248. 58. 1. 127. 172. 0. 0. 0. 1. 40. 235. 31. 0. 128. 171. 0. 0.
      1. 0. 1. 247. 58. 1. 127. 172. 0. 0. 2. 1. 1. 234. 198. 95. 236.
      161. 0. 0. 1. 1. 0. 40. 229. 254. 200. 49. 0. 0.</_>
    <_>
      1. 1. 19. 144. 230. 255. 158. 19. 0. 0. 1. 1. 128. 239. 54. 54.
      236. 128. 0. 0. 2. 1. 172. 191. 1. 2. 128. 199. 3. 0. 1. 1. 172.
      221. 2. 1. 127. 255. 7. 1. 0. 0. 172. 223. 0. 1. 128. 255. 7. 0.
      0. 0. 172. 223. 0. 1. 128. 255. 7. 0. 0. 0. 172. 223. 0. 1. 128.
      255. 7. 0. 0. 0. 172. 223. 0. 1. 128. 255. 7. 0. 1. 1. 128. 238.
      54. 2. 112. 119. 0. 0. 1. 1. 20. 199. 208. 51. 12. 1. 0. 0.</_>
    <_>
      1. 1. 23. 129. 218. 219. 130. 84. 2. 1. 1. 23. 212. 250. 147. 147.
      239. 254. 33. 0. 1. 144. 254. 133. 1. 1. 87. 254. 144. 0. 1. 143.
      255. 86. 0. 0. 109. 254. 143. 1. 1. 143. 255. 86. 1. 1. 207. 254.
      114. 1. 1. 144. 254. 87. 1. 1. 206. 254. 23. 1. 4. 180. 255. 87.
      1. 26. 223. 255. 23. 1. 10. 254. 255. 87. 1. 73. 255. 216. 15. 0.
      1. 153. 254. 240. 232. 239. 255. 102. 0. 0. 1. 16. 130. 154. 226.
      130. 89. 2. 0. 0.</_>
    <_>
      1. 1. 0. 66. 198. 212. 71. 1. 0. 0. 1. 1. 1. 225. 225. 227. 226.
      1. 0. 0. 1. 1. 109. 241. 5. 7. 254. 1. 0. 0. 1. 1. 109. 223. 0. 6.
      255. 54. 0. 0. 1. 1. 109. 223. 0. 7. 254. 4. 0. 0. 1. 1. 109. 223.
      1. 7. 254. 1. 0. 0. 2. 1. 108. 222. 0. 6. 255. 25. 0. 0. 1. 1. 63.
      241. 4. 7. 255. 109. 0. 0. 1. 1. 55. 255. 83. 83. 248. 0. 0. 0. 1.
      1. 1. 133. 255. 254. 132. 1. 0. 0.</_>
    <_>
      1. 2. 83. 213. 255. 255. 153. 23. 1. 1. 2. 33. 254. 217. 112. 112.
      228. 212. 13. 1. 1. 142. 255. 87. 0. 1. 191. 255. 23. 0. 0. 64.
      254. 86. 1. 2. 166. 254. 22. 1. 1. 22. 254. 86. 1. 0. 122. 255.
      22. 0. 1. 115. 255. 87. 1. 2. 178. 254. 22. 0. 1. 143. 254. 86. 1.
      0. 150. 254. 22. 0. 0. 143. 254. 86. 1. 2. 149. 255. 23. 0. 0. 33.
      254. 216. 112. 147. 250. 211. 14. 1. 1. 2. 83. 154. 255. 160. 130.
      23. 1. 1.</_>
    <_>
      1. 1. 44. 233. 255. 254. 193. 45. 0. 0. 0. 1. 234. 254. 89. 176.
      254. 143. 0. 0. 2. 0. 254. 143. 1. 2. 254. 164. 0. 0. 1. 0. 254.
      144. 1. 1. 255. 165. 0. 0. 1. 0. 254. 143. 1. 1. 254. 185. 0. 0.
      1. 1. 254. 144. 1. 0. 254. 143. 0. 0. 1. 1. 254. 144. 0. 1. 254.
      142. 0. 0. 2. 1. 254. 192. 1. 50. 255. 143. 0. 0. 1. 1. 175. 255.
      254. 254. 245. 40. 0. 0. 2. 1. 9. 125. 254. 163. 82. 1. 0. 0.</_>
    <_>
      1. 0. 1. 97. 255. 255. 96. 1. 0. 0. 1. 2. 37. 254. 68. 88. 236. 1.
      0. 0. 0. 0. 38. 199. 1. 1. 255. 1. 0. 0. 1. 1. 33. 143. 1. 1. 254.
      2. 0. 0. 1. 1. 73. 143. 0. 0. 255. 0. 0. 0. 0. 2. 74. 143. 0. 0.
      255. 0. 0. 0. 1. 0. 33. 43. 0. 0. 255. 0. 0. 0. 1. 1. 1. 115. 0.
      0. 255. 0. 0. 0. 1. 1. 1. 57. 11. 44. 236. 0. 0. 0. 1. 0. 1. 96.
      254. 254. 96. 1. 0. 0.</_>
    <_>
      1. 2. 1. 153. 254. 203. 120. 0. 0. 0. 0. 1. 152. 245. 128. 177.
      254. 121. 0. 0. 0. 1. 200. 175. 2. 1. 192. 201. 0. 0. 1. 1. 201.
      175. 2. 1. 176. 200. 0. 0. 0. 1. 201. 174. 0. 1. 175. 201. 0. 0.
      1. 0. 201. 176. 0. 1. 175. 201. 0. 0. 0. 1. 199. 146. 0. 1. 175.
      201. 0. 0. 1. 0. 201. 175. 0. 1. 175. 201. 0. 0. 1. 1. 201. 180.
      1. 1. 180. 195. 0. 0. 1. 1. 91. 255. 188. 188. 254. 70. 0. 0.</_>
    <_>
      1. 1. 1. 71. 238. 213. 25. 1. 0. 0. 1. 1. 0. 211. 191. 191. 198.
      1. 0. 0. 1. 1. 0. 254. 7. 8. 254. 0. 0. 0. 1. 0. 1. 231. 2. 4.
      238. 1. 0. 0. 0. 1. 1. 233. 3. 1. 224. 1. 0. 0. 1. 1. 1. 239. 4.
      1. 223. 1. 0. 0. 1. 1. 2. 250. 6. 2. 223. 1. 0. 0. 1. 1. 1. 254.
      8. 3. 237. 1. 0. 0. 1. 1. 1. 211. 67. 100. 225. 1. 0. 0. 1. 1. 1.
      89. 209. 253. 122. 1. 0. 0.</_>
    <_>
      1. 1. 0. 159. 254. 240. 112. 1. 0. 0. 1. 1. 3. 237. 128. 89. 248.
      62. 0. 0. 0. 1. 3. 243. 12. 1. 184. 128. 0. 0. 1. 1. 3. 239. 0. 1.
      135. 128. 0. 0. 1. 1. 4. 239. 1. 0. 201. 128. 0. 0. 0. 1. 3. 239.
      1. 1. 238. 128. 0. 0. 1. 2. 30. 239. 0. 1. 215. 127. 0. 0. 1. 1.
      5. 243. 12. 1. 237. 128. 0. 0. 2. 1. 3. 238. 170. 169. 238. 60. 0.
      0. 1. 0. 1. 8. 153. 208. 118. 1. 0. 0.</_>
    <_>
      1. 54. 254. 247. 181. 183. 255. 221. 24. 2. 2. 158. 255. 159. 1.
      8. 195. 254. 44. 1. 1. 77. 254. 159. 1. 1. 160. 254. 45. 1. 0. 46.
      255. 160. 1. 0. 107. 255. 139. 1. 1. 44. 254. 159. 0. 1. 105. 255.
      160. 0. 0. 46. 254. 159. 0. 1. 45. 255. 160. 0. 0. 45. 255. 159.
      1. 1. 45. 255. 160. 0. 2. 46. 254. 185. 7. 1. 76. 254. 160. 0. 0.
      9. 197. 255. 159. 156. 238. 228. 48. 1. 0. 1. 45. 134. 188. 134.
      134. 45. 1. 2.</_>
    <_>
      2. 8. 74. 252. 226. 248. 194. 12. 0. 0. 1. 69. 254. 129. 1. 103.
      250. 105. 0. 0. 0. 68. 254. 4. 1. 0. 239. 151. 0. 0. 1. 67. 255.
      3. 0. 1. 239. 213. 0. 0. 0. 67. 255. 3. 1. 0. 239. 214. 0. 0. 0.
      67. 255. 3. 1. 0. 239. 214. 0. 0. 0. 67. 255. 3. 1. 0. 239. 214.
      0. 0. 0. 67. 255. 3. 1. 0. 239. 214. 0. 0. 0. 67. 255. 134. 46.
      81. 244. 134. 0. 0. 1. 8. 169. 255. 244. 254. 194. 13. 0. 0.</_>
    <_>
      0. 1. 1. 154. 254. 230. 146. 68. 0. 0. 1. 1. 42. 252. 114. 32.
      180. 213. 3. 0. 1. 2. 83. 233. 20. 0. 88. 254. 7. 1. 0. 1. 84.
      223. 1. 2. 52. 255. 7. 1. 1. 0. 83. 223. 1. 1. 8. 254. 7. 1. 1. 0.
      84. 223. 1. 1. 127. 254. 6. 1. 1. 1. 83. 223. 2. 1. 128. 253. 7.
      0. 1. 1. 84. 233. 20. 1. 128. 172. 1. 0. 0. 1. 3. 249. 250. 155.
      251. 117. 0. 0. 1. 0. 75. 251. 255. 127. 56. 1. 0. 0.</_>
    <_>
      0. 1. 39. 157. 255. 255. 252. 67. 0. 0. 1. 4. 213. 239. 88. 87.
      239. 214. 3. 0. 0. 8. 255. 222. 1. 1. 223. 254. 7. 1. 1. 7. 255.
      223. 0. 0. 223. 254. 7. 1. 0. 6. 255. 223. 0. 0. 223. 255. 7. 0.
      0. 6. 255. 223. 0. 0. 223. 255. 7. 0. 0. 6. 255. 223. 0. 0. 223.
      255. 7. 0. 0. 6. 255. 223. 0. 0. 223. 255. 7. 0. 1. 4. 203. 238.
      128. 156. 253. 129. 0. 0. 1. 1. 19. 199. 255. 255. 197. 19. 0. 0.</_>
    <_>
      0. 1. 68. 253. 255. 255. 90. 12. 0. 0. 1. 47. 242. 167. 80. 119.
      251. 105. 0. 0. 1. 68. 254. 24. 0. 1. 239. 151. 0. 0. 0. 67. 254.
      4. 1. 1. 239. 213. 0. 0. 1. 67. 255. 3. 1. 0. 168. 213. 0. 0. 1.
      67. 254. 3. 1. 1. 128. 213. 0. 0. 0. 67. 255. 65. 0. 1. 128. 213.
      0. 0. 1. 68. 255. 128. 2. 2. 127. 213. 0. 0. 1. 19. 225. 168. 30.
      63. 214. 134. 0. 0. 0. 2. 69. 254. 237. 249. 195. 12. 0. 0.</_>
    <_>
      0. 1. 3. 64. 192. 192. 104. 3. 0. 0. 1. 1. 99. 232. 80. 78. 233.
      99. 0. 0. 1. 0. 237. 95. 0. 1. 95. 236. 0. 0. 1. 1. 242. 90. 1. 1.
      90. 242. 0. 0. 0. 1. 242. 89. 1. 0. 89. 241. 0. 0. 0. 1. 242. 89.
      1. 0. 90. 195. 0. 0. 0. 1. 242. 89. 0. 1. 90. 201. 0. 0. 0. 1.
      242. 89. 1. 0. 95. 127. 0. 0. 1. 0. 168. 172. 65. 79. 233. 99. 0.
      0. 1. 1. 24. 169. 255. 254. 134. 3. 0. 0.</_>
    <_>
      1. 0. 6. 159. 254. 254. 159. 6. 0. 0. 1. 1. 142. 254. 108. 158.
      254. 142. 0. 0. 1. 1. 184. 254. 19. 19. 254. 185. 0. 0. 0. 2. 185.
      254. 20. 19. 254. 185. 0. 0. 0. 0. 185. 255. 19. 19. 255. 184. 1.
      1. 0. 0. 185. 255. 19. 11. 204. 190. 5. 1. 0. 0. 185. 255. 20. 1.
      159. 255. 46. 1. 0. 0. 185. 255. 51. 46. 229. 204. 13. 0. 1. 1.
      91. 255. 234. 233. 254. 142. 0. 0. 1. 0. 6. 114. 132. 191. 115. 6.
      0. 0.</_>
    <_>
      1. 1. 1. 41. 193. 254. 158. 19. 0. 0. 1. 2. 42. 236. 155. 95. 188.
      202. 3. 0. 1. 1. 83. 223. 0. 1. 8. 254. 7. 1. 0. 2. 83. 223. 1. 1.
      22. 253. 7. 1. 1. 0. 122. 222. 2. 1. 34. 254. 7. 0. 1. 1. 82. 222.
      1. 1. 7. 255. 7. 0. 1. 0. 84. 223. 2. 2. 7. 255. 7. 0. 0. 1. 83.
      222. 1. 0. 7. 255. 7. 0. 1. 1. 73. 253. 114. 33. 176. 245. 6. 0.
      1. 1. 1. 114. 255. 255. 252. 67. 1. 1.</_>
    <_>
      1. 1. 78. 168. 255. 254. 168. 53. 1. 2. 0. 56. 233. 248. 137. 156.
      254. 234. 55. 1. 2. 146. 255. 73. 1. 1. 90. 254. 147. 1. 1. 146.
      254. 54. 0. 0. 55. 255. 134. 1. 1. 117. 255. 116. 1. 0. 54. 255.
      175. 0. 1. 119. 254. 128. 1. 1. 54. 255. 175. 0. 1. 118. 255. 127.
      0. 0. 56. 255. 175. 0. 1. 89. 253. 182. 1. 0. 74. 254. 175. 0. 1.
      0. 200. 255. 156. 96. 195. 254. 144. 1. 1. 0. 2. 150. 208. 253.
      209. 148. 2. 1.</_>
    <_>
      0. 1. 16. 113. 125. 245. 234. 98. 1. 1. 1. 1. 184. 254. 62. 51.
      196. 228. 29. 2. 1. 12. 204. 186. 6. 1. 77. 254. 76. 1. 0. 46.
      254. 159. 2. 1. 45. 254. 160. 1. 1. 45. 254. 159. 1. 1. 44. 254.
      160. 0. 1. 22. 218. 159. 1. 0. 54. 255. 151. 0. 2. 1. 184. 159. 1.
      1. 140. 254. 44. 2. 1. 0. 185. 159. 1. 1. 76. 254. 45. 1. 1. 1.
      185. 238. 156. 105. 238. 254. 46. 1. 1. 1. 46. 233. 254. 255. 255.
      136. 5. 1.</_>
    <_>
      1. 1. 69. 193. 226. 237. 193. 12. 0. 0. 1. 18. 225. 130. 0. 29.
      215. 135. 0. 0. 1. 68. 254. 4. 1. 0. 128. 213. 0. 0. 1. 67. 255.
      4. 1. 1. 127. 213. 0. 0. 0. 67. 255. 3. 1. 1. 128. 214. 0. 0. 0.
      67. 255. 3. 1. 2. 215. 213. 0. 0. 0. 67. 255. 3. 1. 1. 238. 212.
      0. 0. 0. 67. 255. 3. 1. 0. 145. 107. 0. 0. 1. 47. 242. 130. 2. 63.
      243. 73. 0. 0. 1. 1. 168. 253. 226. 249. 142. 1. 0. 0.</_>
    <_>
      1. 1. 1. 135. 254. 255. 255. 60. 0. 0. 1. 1. 1. 254. 155. 36. 218.
      136. 0. 0. 1. 1. 1. 255. 36. 1. 159. 159. 0. 0. 1. 1. 60. 254. 96.
      0. 160. 159. 0. 0. 0. 0. 1. 255. 96. 1. 159. 159. 0. 0. 0. 0. 1.
      255. 96. 1. 159. 158. 0. 0. 0. 0. 1. 255. 96. 1. 160. 160. 0. 0.
      0. 0. 1. 255. 37. 1. 160. 160. 0. 0. 1. 1. 0. 220. 171. 1. 219.
      119. 0. 0. 1. 1. 1. 84. 254. 254. 195. 37. 0. 0.</_>
    <_>
      0. 0. 1. 255. 126. 185. 175. 1. 0. 0. 0. 0. 1. 255. 7. 21. 247. 0.
      0. 0. 0. 0. 1. 255. 7. 1. 223. 1. 0. 0. 0. 0. 1. 255. 7. 1. 222.
      0. 0. 0. 0. 2. 1. 254. 7. 1. 223. 1. 0. 0. 2. 1. 1. 255. 6. 2.
      223. 109. 0. 0. 1. 1. 2. 254. 7. 1. 222. 15. 0. 0. 0. 1. 1. 236.
      4. 3. 236. 109. 0. 0. 1. 0. 1. 253. 83. 83. 255. 1. 0. 0. 1. 1. 0.
      236. 254. 255. 176. 1. 0. 0.</_>
    <_>
      1. 0. 70. 238. 0. 83. 251. 11. 0. 0. 1. 1. 214. 162. 1. 1. 209.
      134. 0. 0. 1. 3. 213. 128. 1. 1. 127. 214. 0. 0. 1. 1. 212. 127.
      1. 2. 128. 213. 0. 0. 1. 0. 213. 101. 1. 1. 128. 213. 0. 0. 1. 1.
      213. 3. 1. 1. 128. 213. 0. 0. 1. 1. 213. 5. 1. 1. 184. 159. 0. 0.
      1. 1. 213. 128. 1. 0. 238. 106. 0. 0. 1. 1. 181. 214. 64. 30. 242.
      72. 0. 0. 1. 1. 12. 144. 224. 118. 83. 1. 0. 0.</_>
    <_>
      2. 2. 101. 255. 255. 255. 213. 23. 1. 1. 1. 32. 255. 250. 232.
      233. 251. 212. 13. 1. 1. 144. 253. 133. 1. 1. 207. 255. 23. 0. 1.
      143. 255. 88. 0. 2. 207. 254. 22. 1. 0. 144. 255. 86. 1. 0. 207.
      255. 22. 0. 0. 144. 255. 86. 1. 0. 207. 255. 22. 0. 0. 144. 255.
      86. 1. 0. 207. 255. 22. 0. 0. 144. 255. 86. 1. 0. 207. 255. 23. 0.
      0. 32. 255. 240. 147. 203. 250. 212. 14. 1. 1. 2. 83. 213. 254.
      254. 213. 23. 1. 1.</_>
    <_>
      0. 0. 1. 1. 191. 254. 255. 254. 64. 1. 1. 1. 2. 191. 192. 1. 1.
      190. 255. 0. 0. 1. 1. 255. 64. 1. 1. 127. 254. 1. 1. 0. 128. 254.
      0. 1. 1. 191. 191. 2. 1. 1. 128. 191. 1. 0. 1. 255. 128. 1. 1. 1.
      255. 127. 0. 1. 1. 254. 64. 0. 2. 1. 254. 128. 1. 1. 127. 254. 1.
      1. 0. 65. 254. 1. 1. 1. 127. 255. 1. 0. 0. 65. 254. 64. 1. 64.
      254. 128. 128. 0. 2. 1. 191. 255. 254. 255. 127. 1. 128. 0.</_>
    <_>
      1. 1. 64. 255. 254. 255. 253. 128. 0. 1. 1. 0. 255. 191. 1. 0. 65.
      254. 64. 1. 0. 1. 254. 128. 1. 1. 1. 255. 128. 0. 0. 0. 255. 128.
      0. 1. 1. 254. 128. 1. 0. 0. 255. 128. 0. 0. 1. 255. 128. 0. 0. 0.
      255. 128. 0. 0. 1. 255. 128. 0. 0. 0. 255. 128. 0. 0. 1. 255. 128.
      0. 0. 0. 255. 128. 0. 0. 1. 255. 128. 0. 1. 1. 254. 191. 64. 1.
      191. 255. 0. 0. 0. 0. 1. 191. 255. 254. 191. 64. 0. 0.</_>
    <_>
      1. 0. 9. 126. 164. 255. 174. 9. 0. 0. 1. 1. 91. 206. 49. 48. 206.
      125. 0. 0. 1. 0. 143. 144. 1. 0. 48. 142. 0. 0. 0. 1. 143. 144. 2.
      2. 49. 143. 0. 0. 0. 0. 144. 144. 1. 0. 66. 143. 0. 0. 0. 0. 144.
      144. 2. 1. 142. 143. 0. 0. 0. 0. 144. 144. 1. 1. 144. 143. 0. 0.
      0. 0. 144. 144. 1. 0. 143. 143. 0. 0. 0. 1. 89. 206. 49. 49. 206.
      126. 0. 0. 1. 1. 10. 126. 255. 254. 126. 11. 0. 0.</_>
    <_>
      0. 1. 1. 69. 254. 255. 152. 0. 0. 0. 1. 1. 60. 240. 73. 72. 215.
      120. 0. 0. 1. 0. 120. 175. 0. 1. 175. 201. 0. 0. 1. 1. 118. 175.
      2. 1. 175. 200. 0. 0. 1. 1. 119. 175. 1. 0. 176. 119. 0. 0. 1. 2.
      159. 174. 0. 0. 176. 118. 0. 0. 1. 0. 201. 92. 0. 0. 176. 118. 0.
      0. 0. 1. 200. 93. 0. 0. 176. 119. 0. 0. 1. 0. 160. 206. 17. 73.
      245. 60. 0. 0. 1. 1. 32. 182. 254. 253. 93. 1. 0. 0.</_>
    <_>
      0. 0. 0. 0. 179. 178. 1. 1. 0. 0. 0. 0. 0. 0. 179. 178. 1. 0. 0.
      0. 0. 0. 0. 0. 111. 178. 0. 1. 0. 0. 0. 0. 0. 0. 102. 178. 1. 1.
      0. 0. 0. 0. 0. 0. 32. 178. 1. 1. 0. 0. 0. 0. 0. 0. 1. 178. 1. 1.
      0. 0. 0. 0. 0. 0. 103. 178. 0. 0. 0. 0. 0. 0. 0. 0. 102. 179. 0.
      1. 0. 0. 0. 0. 0. 0. 21. 179. 1. 0. 0. 0. 0. 0. 0. 0. 1. 75. 1. 0.
      0. 0.</_>
    <_>
      2. 1. 1. 63. 234. 28. 1. 0. 0. 0. 1. 0. 1. 112. 255. 125. 2. 0. 0.
      0. 1. 1. 1. 112. 255. 83. 1. 0. 0. 0. 0. 1. 1. 112. 254. 48. 1. 1.
      0. 0. 0. 1. 0. 112. 255. 48. 0. 0. 0. 0. 1. 1. 1. 113. 255. 48. 0.
      0. 0. 0. 1. 1. 1. 91. 255. 48. 0. 0. 0. 0. 1. 1. 1. 91. 255. 48.
      0. 0. 0. 0. 0. 0. 1. 112. 255. 66. 1. 1. 0. 0. 0. 0. 1. 112. 254.
      192. 50. 2. 0. 0.</_>
    <_>
      0. 0. 0. 0. 249. 250. 12. 1. 0. 0. 0. 0. 0. 0. 248. 249. 2. 1. 0.
      0. 0. 0. 0. 0. 248. 248. 0. 1. 0. 0. 0. 0. 0. 0. 188. 249. 0. 1.
      0. 0. 0. 0. 0. 0. 245. 249. 1. 1. 0. 0. 0. 0. 0. 0. 131. 252. 16.
      1. 0. 0. 0. 0. 0. 0. 248. 249. 1. 1. 0. 0. 0. 0. 0. 0. 248. 248.
      2. 1. 0. 0. 0. 0. 0. 0. 200. 252. 26. 1. 0. 0. 0. 0. 0. 0. 245.
      250. 17. 1. 0. 0.</_>
    <_>
      0. 0. 0. 0. 153. 12. 0. 0. 0. 0. 0. 0. 0. 0. 162. 126. 2. 1. 0. 0.
      0. 0. 0. 0. 166. 165. 1. 1. 0. 0. 0. 0. 0. 0. 162. 128. 1. 0. 0.
      0. 0. 0. 0. 0. 154. 20. 1. 0. 0. 0. 0. 0. 0. 0. 160. 104. 1. 1. 0.
      0. 0. 0. 0. 0. 152. 13. 1. 1. 0. 0. 0. 0. 0. 0. 153. 13. 1. 0. 0.
      0. 0. 0. 0. 0. 153. 13. 1. 0. 0. 0. 0. 0. 0. 0. 153. 13. 1. 0. 0.
      0.</_>
    <_>
      0. 0. 0. 0. 35. 254. 69. 1. 0. 0. 0. 0. 0. 0. 36. 254. 48. 0. 0.
      0. 0. 0. 0. 0. 35. 254. 47. 0. 0. 0. 0. 0. 0. 0. 36. 254. 125. 0.
      0. 0. 0. 0. 0. 0. 35. 254. 56. 0. 0. 0. 0. 0. 0. 0. 35. 255. 47.
      1. 0. 0. 0. 0. 0. 0. 35. 254. 49. 1. 0. 0. 0. 0. 0. 0. 36. 254.
      48. 1. 0. 0. 0. 0. 0. 0. 35. 255. 84. 1. 0. 0. 0. 0. 0. 0. 23.
      242. 48. 1. 0. 0.</_>
    <_>
      0. 0. 0. 0. 255. 66. 1. 1. 0. 0. 0. 0. 0. 0. 255. 143. 1. 2. 0. 0.
      0. 0. 0. 0. 255. 144. 0. 1. 0. 0. 0. 0. 0. 0. 255. 143. 0. 2. 0.
      0. 0. 0. 0. 0. 255. 125. 1. 1. 0. 0. 0. 0. 0. 0. 255. 48. 0. 3. 0.
      0. 0. 0. 0. 0. 255. 47. 1. 1. 0. 0. 0. 0. 0. 0. 255. 49. 1. 0. 0.
      0. 0. 0. 0. 0. 255. 48. 0. 0. 0. 0. 0. 0. 0. 0. 255. 48. 0. 0. 0.
      0.</_>
    <_>
      0. 0. 0. 0. 128. 254. 1. 1. 0. 0. 0. 0. 0. 0. 254. 255. 0. 1. 0.
      0. 0. 0. 0. 0. 255. 254. 1. 1. 0. 0. 0. 0. 0. 0. 255. 255. 0. 1.
      0. 0. 0. 0. 0. 0. 255. 255. 0. 0. 0. 0. 0. 0. 0. 0. 255. 255. 0.
      0. 0. 0. 0. 0. 0. 0. 255. 255. 0. 0. 0. 0. 0. 0. 0. 0. 255. 255.
      0. 0. 0. 0. 0. 0. 0. 0. 255. 255. 1. 1. 0. 0. 0. 0. 0. 0. 191.
      191. 1. 1. 0. 0.</_>
    <_>
      0. 0. 0. 0. 84. 254. 32. 1. 0. 0. 0. 0. 0. 0. 106. 254. 33. 1. 0.
      0. 0. 0. 0. 0. 128. 254. 33. 1. 0. 0. 0. 0. 0. 0. 143. 255. 32. 1.
      0. 0. 0. 0. 0. 0. 249. 254. 32. 1. 0. 0. 0. 0. 0. 0. 166. 255. 32.
      1. 0. 0. 0. 0. 0. 0. 127. 250. 17. 1. 0. 0. 0. 0. 0. 0. 248. 248.
      1. 1. 0. 0. 1. 1. 1. 17. 252. 248. 1. 0. 0. 0. 1. 1. 0. 1. 248.
      249. 0. 1. 0. 0.</_>
    <_>
      0. 0. 0. 0. 7. 249. 33. 0. 0. 0. 0. 0. 0. 0. 7. 249. 33. 0. 0. 0.
      0. 0. 0. 0. 7. 249. 33. 0. 0. 0. 0. 0. 0. 0. 7. 249. 33. 0. 0. 0.
      0. 0. 0. 0. 7. 249. 33. 0. 0. 0. 0. 0. 0. 0. 7. 249. 33. 0. 0. 0.
      0. 0. 0. 0. 7. 249. 33. 0. 0. 0. 0. 0. 0. 0. 7. 249. 33. 0. 0. 0.
      0. 0. 0. 0. 7. 249. 32. 0. 0. 0. 0. 0. 0. 0. 87. 251. 33. 1. 0. 0.</_>
    <_>
      1. 0. 0. 4. 222. 28. 1. 1. 0. 0. 0. 0. 0. 1. 213. 29. 1. 1. 0. 0.
      0. 0. 0. 0. 214. 78. 2. 2. 0. 0. 0. 0. 0. 0. 213. 127. 1. 0. 0. 0.
      0. 0. 0. 0. 214. 129. 1. 0. 0. 0. 0. 0. 0. 0. 213. 128. 1. 1. 0.
      0. 0. 0. 0. 0. 132. 146. 1. 1. 0. 0. 0. 0. 0. 0. 128. 213. 1. 1.
      0. 0. 0. 0. 0. 0. 128. 213. 1. 0. 0. 0. 0. 0. 0. 0. 92. 182. 1. 1.
      0. 0.</_>
    <_>
      1. 1. 0. 45. 188. 30. 1. 0. 0. 0. 1. 0. 1. 114. 254. 74. 1. 1. 0.
      0. 0. 1. 1. 115. 254. 73. 1. 1. 0. 0. 0. 1. 1. 115. 254. 74. 1. 1.
      0. 0. 1. 1. 0. 82. 245. 199. 0. 1. 0. 0. 1. 0. 1. 1. 219. 225. 16.
      2. 0. 0. 0. 0. 1. 1. 219. 235. 53. 1. 0. 0. 1. 1. 1. 1. 219. 220.
      0. 1. 0. 0. 0. 0. 0. 0. 220. 220. 0. 0. 0. 0. 0. 0. 0. 0. 220.
      220. 0. 0. 0. 0.</_>
    <_>
      0. 0. 0. 0. 251. 65. 1. 0. 0. 0. 0. 0. 0. 0. 251. 127. 1. 0. 0. 0.
      0. 0. 0. 0. 251. 127. 0. 1. 0. 0. 0. 0. 0. 0. 251. 128. 1. 1. 0.
      0. 0. 0. 0. 0. 189. 127. 1. 0. 0. 0. 0. 0. 0. 0. 128. 232. 0. 1.
      0. 0. 0. 0. 0. 0. 128. 252. 1. 1. 0. 0. 0. 0. 0. 0. 128. 252. 0.
      1. 0. 0. 0. 0. 0. 0. 127. 252. 1. 1. 0. 0. 0. 0. 0. 0. 47. 184. 0.
      1. 0. 0.</_>
    <_>
      0. 0. 0. 0. 128. 161. 0. 1. 0. 0. 0. 0. 0. 0. 127. 251. 2. 0. 0.
      0. 0. 0. 0. 0. 185. 252. 1. 1. 0. 0. 0. 0. 0. 0. 252. 252. 1. 0.
      0. 0. 0. 0. 0. 0. 252. 251. 1. 1. 0. 0. 0. 0. 0. 0. 252. 190. 1.
      1. 0. 0. 0. 0. 0. 0. 252. 127. 2. 1. 0. 0. 0. 0. 0. 0. 251. 128.
      1. 1. 0. 0. 0. 0. 0. 0. 252. 128. 0. 0. 0. 0. 0. 0. 0. 0. 252.
      128. 0. 0. 0. 0.</_>
    <_>
      0. 0. 0. 0. 92. 252. 1. 1. 0. 0. 0. 0. 0. 0. 128. 149. 0. 1. 0. 0.
      0. 0. 0. 0. 127. 252. 2. 1. 0. 0. 0. 0. 0. 0. 128. 127. 1. 1. 0.
      0. 0. 0. 0. 0. 190. 128. 1. 1. 0. 0. 0. 0. 0. 0. 251. 127. 2. 1.
      0. 0. 0. 0. 0. 0. 251. 128. 0. 1. 0. 0. 0. 0. 0. 0. 251. 81. 1. 1.
      0. 0. 0. 0. 0. 0. 252. 42. 0. 0. 0. 0. 0. 0. 0. 0. 252. 42. 0. 0.
      0. 0.</_>
    <_>
      0. 0. 0. 0. 189. 190. 11. 1. 0. 0. 0. 0. 0. 0. 248. 64. 0. 1. 0.
      0. 0. 0. 0. 0. 248. 1. 1. 0. 0. 0. 0. 0. 0. 0. 249. 1. 1. 1. 0. 0.
      1. 0. 1. 16. 251. 1. 1. 0. 0. 0. 0. 1. 2. 33. 255. 0. 1. 0. 0. 0.
      1. 1. 0. 32. 255. 0. 0. 0. 0. 0. 1. 1. 1. 33. 255. 0. 1. 0. 0. 0.
      0. 0. 1. 28. 254. 1. 1. 1. 0. 0. 1. 1. 0. 1. 249. 135. 1. 1. 0. 0.</_>
    <_>
      0. 0. 1. 48. 255. 61. 0. 0. 0. 0. 0. 0. 1. 48. 255. 61. 0. 0. 0.
      0. 0. 0. 1. 49. 255. 61. 0. 0. 0. 0. 0. 0. 1. 49. 255. 61. 0. 0.
      0. 0. 0. 0. 1. 48. 254. 61. 1. 0. 0. 0. 0. 0. 1. 48. 255. 61. 1.
      1. 0. 0. 0. 0. 1. 48. 255. 101. 1. 1. 0. 0. 0. 0. 1. 48. 254. 182.
      1. 1. 0. 0. 0. 0. 1. 48. 255. 181. 1. 1. 0. 0. 0. 0. 1. 48. 254.
      122. 1. 1. 0. 0.</_>
    <_>
      0. 0. 0. 0. 65. 251. 1. 0. 0. 0. 0. 0. 0. 0. 126. 252. 0. 1. 0. 0.
      0. 0. 0. 0. 127. 251. 1. 0. 0. 0. 0. 0. 0. 0. 128. 251. 1. 0. 0.
      0. 0. 0. 0. 0. 127. 251. 1. 1. 0. 0. 0. 0. 0. 0. 127. 191. 1. 1.
      0. 0. 0. 0. 0. 0. 128. 128. 1. 1. 0. 0. 0. 0. 0. 0. 128. 128. 0.
      1. 0. 0. 0. 0. 0. 0. 230. 128. 0. 1. 0. 0. 0. 0. 0. 0. 128. 64. 1.
      1. 0. 0.</_>
    <_>
      0. 0. 0. 0. 25. 183. 22. 1. 0. 0. 0. 0. 0. 0. 42. 253. 40. 0. 0.
      0. 0. 0. 0. 0. 42. 251. 1. 1. 0. 0. 0. 0. 0. 0. 43. 252. 1. 0. 0.
      0. 0. 0. 0. 0. 42. 251. 0. 1. 0. 0. 0. 0. 0. 0. 41. 252. 0. 1. 0.
      0. 0. 0. 0. 0. 43. 252. 29. 0. 0. 0. 0. 0. 0. 0. 127. 252. 1. 0.
      0. 0. 0. 2. 1. 5. 190. 252. 0. 1. 0. 0. 1. 1. 1. 22. 202. 251. 1.
      1. 0. 0.</_>
    <_>
      0. 0. 0. 0. 247. 15. 1. 1. 0. 0. 0. 0. 0. 0. 185. 128. 1. 0. 0. 0.
      0. 0. 0. 0. 128. 192. 1. 1. 0. 0. 0. 0. 0. 0. 82. 195. 1. 1. 0. 0.
      0. 0. 0. 0. 23. 194. 1. 0. 0. 0. 0. 0. 0. 0. 22. 195. 0. 0. 0. 0.
      0. 0. 0. 0. 23. 195. 0. 0. 0. 0. 0. 0. 0. 0. 27. 193. 1. 1. 0. 0.
      0. 0. 0. 0. 128. 161. 0. 1. 0. 0. 0. 0. 0. 0. 92. 73. 2. 0. 0. 0.</_>
    <_>
      0. 0. 0. 0. 65. 127. 0. 1. 0. 0. 0. 0. 0. 0. 1. 128. 0. 1. 0. 0.
      0. 0. 0. 0. 0. 127. 1. 1. 0. 0. 0. 0. 0. 0. 1. 128. 1. 0. 0. 0. 0.
      0. 0. 0. 0. 128. 0. 0. 0. 0. 0. 0. 0. 0. 0. 128. 0. 0. 0. 0. 0. 0.
      0. 0. 0. 128. 0. 0. 0. 0. 0. 0. 0. 0. 0. 128. 0. 0. 0. 0. 0. 0. 0.
      0. 0. 128. 0. 0. 0. 0. 0. 0. 0. 0. 0. 128. 0. 0. 0. 0.</_>
    <_>
      1. 0. 1. 42. 190. 253. 103. 1. 0. 0. 1. 1. 1. 1. 83. 249. 1. 1. 0.
      0. 0. 2. 1. 1. 102. 248. 1. 1. 0. 0. 1. 1. 0. 1. 127. 249. 1. 1.
      0. 0. 0. 0. 0. 0. 128. 248. 0. 0. 0. 0. 0. 0. 0. 0. 128. 248. 0.
      0. 0. 0. 0. 0. 0. 0. 128. 248. 0. 0. 0. 0. 0. 0. 0. 0. 128. 248.
      0. 0. 0. 0. 0. 0. 0. 0. 128. 249. 0. 0. 0. 0. 0. 0. 0. 0. 84. 251.
      16. 1. 0. 0.</_>
    <_>
      0. 0. 0. 0. 206. 101. 1. 1. 0. 0. 0. 0. 0. 0. 254. 143. 1. 2. 0.
      0. 0. 0. 0. 0. 255. 143. 1. 2. 0. 0. 0. 0. 0. 0. 254. 144. 1. 1.
      0. 0. 0. 0. 0. 0. 255. 48. 1. 1. 0. 0. 0. 0. 0. 0. 254. 48. 1. 1.
      0. 0. 0. 0. 0. 0. 255. 142. 1. 0. 0. 0. 0. 0. 0. 0. 255. 143. 1.
      1. 0. 0. 0. 0. 0. 0. 255. 48. 0. 0. 0. 0. 0. 0. 0. 0. 255. 48. 0.
      0. 0. 0.</_>
    <_>
      0. 0. 0. 0. 200. 43. 1. 0. 0. 0. 0. 0. 0. 0. 252. 41. 2. 1. 0. 0.
      0. 0. 0. 0. 252. 81. 1. 1. 0. 0. 0. 0. 0. 0. 252. 128. 1. 1. 0. 0.
      0. 0. 0. 0. 252. 128. 0. 0. 0. 0. 0. 0. 0. 0. 252. 128. 0. 0. 0.
      0. 0. 0. 0. 0. 252. 128. 0. 0. 0. 0. 0. 0. 0. 0. 252. 128. 0. 0.
      0. 0. 0. 0. 0. 0. 244. 128. 1. 2. 0. 0. 0. 0. 0. 0. 93. 91. 1. 1.
      0. 0.</_>
    <_>
      0. 0. 0. 0. 130. 236. 1. 1. 0. 0. 0. 0. 0. 0. 236. 248. 60. 2. 0.
      0. 0. 0. 0. 0. 236. 254. 97. 1. 0. 0. 0. 0. 0. 0. 184. 255. 96. 1.
      0. 0. 0. 0. 0. 0. 236. 255. 96. 0. 0. 0. 0. 0. 0. 0. 236. 255. 96.
      0. 0. 0. 0. 0. 0. 0. 235. 255. 96. 0. 0. 0. 0. 0. 0. 0. 154. 254.
      96. 1. 0. 0. 0. 0. 0. 0. 121. 254. 97. 1. 0. 0. 0. 0. 0. 0. 122.
      246. 50. 1. 0. 0.</_>
    <_>
      0. 0. 0. 0. 84. 248. 1. 1. 0. 0. 0. 0. 0. 0. 83. 143. 0. 1. 0. 0.
      0. 0. 0. 0. 82. 128. 1. 1. 0. 0. 0. 0. 0. 0. 83. 128. 1. 0. 0. 0.
      0. 0. 0. 0. 84. 127. 1. 1. 0. 0. 0. 0. 0. 0. 82. 128. 0. 0. 0. 0.
      0. 0. 0. 0. 84. 127. 0. 1. 0. 0. 0. 0. 0. 0. 110. 128. 1. 1. 0. 0.
      0. 0. 0. 0. 93. 127. 1. 1. 0. 0. 0. 0. 0. 0. 106. 127. 1. 1. 0. 0.</_>
    <_>
      0. 0. 0. 0. 48. 206. 1. 1. 0. 0. 0. 0. 0. 0. 48. 254. 2. 1. 0. 0.
      0. 0. 0. 0. 143. 193. 0. 1. 0. 0. 0. 0. 0. 0. 143. 143. 1. 1. 0.
      0. 0. 0. 0. 0. 164. 143. 1. 1. 0. 0. 0. 0. 0. 0. 206. 143. 2. 1.
      0. 0. 0. 0. 0. 0. 143. 143. 0. 1. 0. 0. 0. 0. 0. 0. 192. 143. 2.
      1. 0. 0. 0. 0. 0. 0. 254. 143. 1. 1. 0. 0. 0. 0. 0. 0. 254. 101.
      0. 1. 0. 0.</_>
    <_>
      0. 0. 0. 0. 7. 248. 33. 1. 0. 0. 0. 0. 0. 0. 6. 249. 31. 1. 0. 0.
      0. 0. 0. 0. 6. 249. 32. 0. 0. 0. 0. 0. 0. 0. 6. 175. 11. 1. 0. 0.
      0. 0. 0. 0. 11. 202. 19. 0. 0. 0. 0. 0. 0. 0. 84. 251. 34. 1. 0.
      0. 0. 0. 0. 0. 6. 249. 32. 2. 0. 0. 0. 0. 0. 0. 38. 249. 33. 0. 0.
      0. 0. 0. 0. 0. 70. 251. 32. 2. 0. 0. 0. 0. 0. 0. 65. 251. 33. 1.
      0. 0.</_>
    <_>
      0. 0. 0. 0. 234. 25. 1. 1. 0. 0. 0. 0. 0. 0. 251. 75. 1. 1. 0. 0.
      0. 0. 0. 0. 251. 82. 2. 1. 0. 0. 0. 0. 0. 0. 252. 101. 1. 2. 0. 0.
      0. 0. 0. 0. 252. 42. 1. 0. 0. 0. 0. 0. 0. 0. 252. 42. 1. 1. 0. 0.
      0. 0. 0. 0. 252. 100. 0. 1. 0. 0. 0. 0. 0. 0. 251. 109. 1. 1. 0.
      0. 0. 0. 0. 0. 251. 79. 1. 1. 0. 0. 0. 0. 0. 0. 184. 24. 1. 1. 0.
      0.</_>
    <_>
      0. 1. 1. 89. 106. 198. 227. 0. 0. 0. 1. 1. 1. 1. 1. 166. 162. 1.
      0. 0. 1. 1. 2. 2. 35. 251. 19. 1. 0. 0. 0. 1. 0. 1. 118. 188. 1.
      0. 0. 0. 0. 0. 0. 0. 128. 128. 1. 0. 0. 0. 0. 0. 0. 0. 248. 83. 1.
      1. 0. 0. 0. 0. 0. 0. 248. 83. 1. 1. 0. 0. 0. 0. 0. 0. 249. 83. 0.
      0. 0. 0. 0. 0. 0. 0. 249. 84. 0. 1. 0. 0. 0. 0. 0. 0. 248. 57. 1.
      0. 0. 0.</_>
    <_>
      0. 0. 1. 48. 254. 123. 1. 0. 0. 0. 0. 0. 1. 48. 255. 182. 0. 1. 0.
      0. 0. 0. 1. 49. 255. 181. 2. 1. 0. 0. 0. 0. 1. 49. 254. 182. 1. 1.
      0. 0. 0. 0. 1. 48. 255. 182. 0. 0. 0. 0. 0. 0. 1. 48. 255. 182. 0.
      0. 0. 0. 0. 0. 1. 48. 255. 182. 0. 0. 0. 0. 0. 0. 1. 48. 255. 182.
      0. 0. 0. 0. 0. 0. 1. 48. 255. 181. 1. 1. 0. 0. 0. 0. 1. 48. 254.
      122. 1. 1. 0. 0.</_>
    <_>
      0. 0. 0. 0. 160. 251. 1. 1. 0. 0. 0. 0. 0. 0. 251. 252. 1. 0. 0.
      0. 0. 0. 0. 0. 251. 251. 1. 0. 0. 0. 0. 0. 0. 0. 252. 252. 0. 1.
      0. 0. 0. 0. 0. 0. 252. 252. 0. 0. 0. 0. 0. 0. 0. 0. 252. 252. 0.
      0. 0. 0. 0. 0. 0. 0. 252. 252. 0. 0. 0. 0. 0. 0. 0. 0. 252. 252.
      0. 0. 0. 0. 0. 0. 0. 0. 251. 251. 1. 1. 0. 0. 0. 0. 0. 0. 125.
      160. 2. 1. 0. 0.</_>
    <_>
      1. 1. 91. 255. 254. 255. 128. 1. 0. 0. 1. 1. 200. 206. 36. 224.
      249. 1. 0. 0. 1. 1. 43. 20. 0. 128. 254. 1. 0. 0. 1. 2. 1. 1. 28.
      239. 226. 1. 0. 0. 0. 1. 2. 1. 189. 254. 108. 1. 0. 0. 1. 1. 1.
      41. 252. 189. 1. 1. 0. 0. 0. 1. 1. 226. 239. 27. 2. 0. 0. 0. 1. 1.
      118. 254. 141. 1. 1. 1. 0. 0. 1. 1. 191. 255. 129. 128. 159. 8. 0.
      0. 1. 0. 167. 254. 254. 255. 216. 32. 0. 0.</_>
    <_>
      0. 2. 1. 16. 125. 255. 234. 45. 1. 1. 1. 1. 43. 239. 160. 96. 123.
      228. 28. 2. 1. 1. 51. 142. 6. 0. 45. 255. 45. 1. 1. 0. 2. 1. 2. 1.
      88. 228. 28. 1. 0. 1. 1. 1. 1. 72. 248. 130. 0. 0. 1. 1. 1. 1. 10.
      198. 150. 1. 0. 0. 1. 1. 1. 2. 192. 223. 36. 1. 0. 0. 1. 1. 2.
      101. 215. 34. 0. 1. 0. 0. 1. 1. 59. 247. 39. 1. 1. 1. 0. 1. 1. 2.
      176. 255. 237. 235. 236. 203. 21. 1.</_>
    <_>
      1. 2. 1. 62. 108. 254. 234. 77. 0. 0. 1. 0. 26. 255. 203. 188.
      255. 178. 0. 0. 1. 0. 27. 255. 46. 9. 254. 230. 0. 0. 1. 1. 6. 52.
      0. 39. 254. 179. 0. 0. 0. 0. 1. 0. 1. 171. 255. 57. 0. 0. 0. 1. 2.
      0. 126. 253. 159. 1. 0. 0. 2. 1. 0. 27. 216. 239. 0. 0. 0. 0. 1.
      1. 3. 171. 255. 59. 1. 1. 0. 0. 0. 2. 26. 255. 255. 157. 151. 13.
      0. 0. 1. 2. 88. 255. 254. 254. 254. 128. 0. 0.</_>
    <_>
      1. 1. 1. 59. 134. 255. 179. 44. 1. 1. 1. 2. 43. 238. 159. 95. 175.
      228. 28. 2. 1. 1. 51. 142. 6. 2. 45. 254. 45. 1. 1. 1. 1. 1. 1. 1.
      89. 228. 28. 1. 0. 1. 1. 1. 1. 71. 247. 131. 0. 0. 1. 1. 1. 1. 10.
      195. 143. 1. 0. 0. 1. 1. 1. 2. 142. 215. 1. 1. 0. 0. 1. 1. 2. 101.
      217. 35. 0. 1. 0. 0. 1. 1. 59. 247. 39. 1. 1. 1. 0. 1. 1. 2. 176.
      255. 237. 235. 236. 203. 21. 1.</_>
    <_>
      1. 1. 24. 154. 255. 254. 153. 26. 1. 1. 0. 13. 210. 254. 238. 233.
      251. 255. 33. 1. 2. 19. 219. 197. 29. 1. 206. 254. 143. 1. 1. 1.
      1. 1. 1. 15. 215. 254. 64. 1. 1. 2. 0. 1. 16. 174. 255. 155. 8. 1.
      1. 1. 1. 14. 173. 254. 196. 26. 1. 1. 1. 1. 12. 176. 254. 230. 32.
      1. 0. 0. 1. 9. 179. 254. 231. 54. 1. 1. 1. 1. 0. 75. 254. 255.
      249. 232. 233. 232. 74. 1. 0. 85. 254. 254. 255. 255. 255. 255.
      27. 1.</_>
    <_>
      1. 1. 106. 254. 255. 251. 66. 37. 0. 0. 1. 1. 1. 197. 255. 254.
      91. 1. 0. 0. 1. 1. 1. 197. 188. 77. 255. 0. 0. 0. 0. 1. 0. 99. 31.
      2. 234. 109. 0. 0. 1. 1. 1. 1. 0. 46. 254. 55. 0. 0. 1. 1. 1. 1.
      2. 198. 179. 1. 0. 0. 0. 2. 1. 0. 150. 224. 17. 0. 0. 0. 1. 0. 1.
      60. 251. 67. 1. 1. 0. 0. 0. 1. 1. 169. 245. 0. 1. 0. 0. 0. 1. 0.
      1. 254. 253. 209. 248. 1. 0. 0.</_>
    <_>
      0. 8. 168. 253. 253. 255. 195. 119. 7. 1. 1. 141. 254. 250. 120.
      189. 255. 255. 68. 1. 1. 29. 174. 94. 0. 92. 255. 254. 68. 0. 1.
      1. 2. 1. 0. 147. 254. 252. 63. 1. 1. 1. 1. 0. 58. 236. 255. 191.
      0. 0. 1. 1. 1. 7. 195. 254. 208. 23. 0. 0. 1. 0. 1. 122. 254. 254.
      23. 1. 0. 0. 1. 1. 80. 254. 246. 90. 1. 2. 0. 0. 1. 50. 243. 255.
      241. 187. 188. 188. 129. 1. 0. 36. 235. 254. 254. 254. 255. 255.
      79. 2.</_>
    <_>
      1. 1. 16. 234. 202. 202. 188. 9. 0. 0. 1. 1. 127. 191. 2. 0. 254.
      25. 0. 0. 1. 0. 13. 14. 1. 1. 255. 25. 0. 0. 0. 1. 1. 0. 1. 100.
      214. 5. 0. 0. 1. 1. 1. 2. 2. 223. 77. 1. 0. 0. 1. 2. 1. 1. 125.
      186. 0. 1. 0. 0. 1. 1. 1. 26. 254. 52. 2. 1. 0. 0. 1. 1. 1. 166.
      155. 1. 0. 1. 0. 0. 1. 1. 72. 244. 39. 0. 64. 14. 0. 0. 1. 1. 128.
      255. 254. 254. 255. 127. 0. 0.</_>
    <_>
      1. 1. 1. 114. 254. 255. 199. 20. 0. 0. 0. 2. 73. 254. 250. 250.
      255. 128. 0. 0. 1. 1. 57. 161. 19. 57. 255. 170. 0. 0. 1. 1. 1. 0.
      0. 69. 255. 128. 0. 0. 1. 1. 1. 0. 46. 230. 250. 19. 0. 0. 0. 1.
      0. 7. 173. 241. 65. 1. 0. 0. 1. 1. 2. 175. 254. 118. 1. 1. 0. 0.
      1. 0. 85. 254. 255. 84. 82. 1. 0. 0. 1. 1. 171. 255. 254. 255.
      254. 81. 0. 0. 1. 0. 69. 252. 208. 208. 158. 19. 0. 0.</_>
    <_>
      1. 2. 45. 234. 237. 246. 233. 38. 0. 0. 2. 1. 164. 239. 17. 62.
      255. 142. 0. 0. 0. 1. 20. 44. 1. 20. 254. 154. 0. 0. 1. 0. 2. 0.
      1. 159. 254. 71. 0. 0. 0. 1. 1. 1. 58. 254. 158. 6. 0. 0. 1. 1. 1.
      9. 237. 235. 46. 1. 0. 0. 1. 0. 1. 167. 234. 47. 0. 1. 0. 0. 1. 1.
      51. 242. 167. 70. 71. 52. 0. 0. 1. 1. 121. 254. 254. 255. 254.
      140. 0. 0. 1. 0. 39. 189. 79. 20. 19. 6. 0. 0.</_>
    <_>
      1. 0. 8. 137. 225. 255. 114. 8. 0. 0. 0. 1. 178. 255. 219. 219.
      255. 178. 0. 0. 1. 1. 83. 178. 9. 76. 254. 229. 0. 0. 0. 1. 1. 1.
      1. 115. 255. 179. 0. 0. 1. 1. 1. 1. 42. 223. 255. 58. 0. 0. 1. 2.
      1. 1. 148. 253. 120. 1. 0. 0. 1. 1. 1. 26. 254. 216. 0. 1. 0. 0.
      1. 1. 4. 202. 254. 70. 6. 13. 0. 0. 1. 1. 106. 254. 255. 224. 215.
      209. 0. 0. 1. 1. 15. 204. 254. 254. 254. 190. 0. 0.</_>
    <_>
      1. 1. 1. 82. 253. 252. 175. 1. 0. 0. 2. 1. 1. 198. 72. 19. 232. 1.
      0. 0. 2. 1. 1. 1. 1. 1. 223. 1. 0. 0. 1. 1. 1. 1. 1. 20. 218. 2.
      0. 0. 0. 1. 2. 0. 1. 150. 98. 1. 0. 0. 1. 1. 0. 1. 57. 247. 12. 1.
      0. 0. 1. 1. 1. 1. 187. 107. 1. 0. 0. 0. 1. 1. 0. 73. 208. 0. 2. 1.
      0. 0. 0. 0. 0. 210. 67. 1. 2. 0. 0. 0. 1. 2. 1. 254. 228. 248.
      159. 1. 0. 0.</_>
    <_>
      1. 1. 25. 215. 255. 253. 254. 93. 0. 0. 0. 1. 213. 232. 79. 66.
      207. 241. 0. 0. 1. 1. 70. 96. 0. 2. 191. 242. 0. 0. 1. 1. 1. 0. 1.
      50. 233. 168. 0. 0. 1. 1. 0. 0. 1. 191. 214. 24. 0. 0. 1. 0. 1. 1.
      130. 254. 110. 2. 0. 0. 1. 2. 1. 48. 245. 190. 17. 1. 0. 0. 1. 1.
      7. 205. 197. 7. 0. 1. 0. 0. 1. 1. 87. 255. 168. 120. 165. 162. 23.
      1. 1. 1. 76. 254. 203. 254. 255. 192. 14. 2.</_>
    <_>
      0. 1. 1. 199. 212. 86. 237. 109. 0. 0. 1. 1. 1. 173. 19. 1. 127.
      110. 0. 0. 1. 1. 1. 0. 1. 1. 168. 109. 0. 0. 2. 1. 1. 1. 1. 21.
      247. 25. 0. 0. 2. 1. 0. 1. 1. 149. 176. 1. 0. 0. 1. 1. 1. 1. 57.
      251. 16. 1. 0. 0. 1. 0. 2. 8. 234. 133. 1. 1. 0. 0. 1. 1. 1. 72.
      219. 36. 1. 1. 0. 0. 1. 1. 1. 189. 172. 2. 25. 0. 0. 0. 1. 1. 0.
      253. 253. 248. 253. 106. 0. 0.</_>
    <_>
      1. 1. 28. 125. 255. 255. 174. 27. 0. 0. 1. 1. 190. 254. 254. 254.
      255. 234. 0. 0. 1. 1. 255. 254. 49. 50. 254. 254. 0. 0. 1. 1. 65.
      66. 1. 91. 255. 254. 0. 0. 2. 1. 1. 1. 45. 234. 254. 175. 0. 0. 0.
      1. 1. 1. 192. 255. 235. 27. 0. 0. 0. 2. 1. 129. 254. 235. 49. 1.
      0. 0. 1. 0. 39. 246. 234. 44. 1. 1. 0. 0. 1. 1. 206. 255. 207. 0.
      1. 1. 0. 0. 1. 1. 255. 254. 134. 144. 207. 39. 0. 0.</_>
    <_>
      0. 1. 2. 105. 238. 254. 214. 88. 0. 0. 2. 1. 99. 255. 214. 180.
      254. 242. 0. 0. 1. 1. 18. 252. 42. 2. 149. 242. 0. 0. 1. 0. 5. 67.
      1. 26. 232. 241. 0. 0. 0. 1. 0. 1. 1. 176. 254. 145. 0. 0. 1. 1.
      1. 1. 130. 255. 191. 7. 0. 0. 0. 2. 1. 83. 245. 227. 16. 1. 0. 0.
      0. 1. 17. 251. 255. 11. 10. 7. 0. 0. 0. 1. 128. 255. 255. 165.
      232. 202. 0. 0. 0. 1. 128. 255. 255. 254. 255. 191. 0. 0.</_>
    <_>
      1. 2. 1. 50. 238. 255. 214. 25. 0. 0. 1. 1. 10. 233. 254. 179.
      254. 212. 0. 0. 1. 1. 12. 242. 93. 4. 194. 241. 0. 0. 1. 1. 1. 1.
      2. 25. 232. 242. 0. 0. 0. 1. 0. 1. 0. 176. 254. 94. 0. 0. 1. 1. 1.
      1. 130. 255. 151. 1. 0. 0. 0. 2. 1. 83. 246. 191. 16. 1. 0. 0. 0.
      1. 17. 251. 255. 123. 13. 7. 0. 0. 0. 1. 127. 255. 254. 255. 255.
      128. 0. 0. 1. 2. 25. 169. 254. 237. 141. 70. 0. 0.</_>
    <_>
      0. 0. 107. 204. 255. 254. 138. 39. 1. 0. 1. 90. 254. 254. 204.
      203. 255. 242. 41. 1. 1. 121. 232. 46. 0. 1. 103. 255. 128. 0. 1.
      10. 26. 0. 1. 1. 113. 254. 89. 1. 1. 1. 0. 1. 0. 84. 255. 236. 17.
      2. 1. 1. 2. 1. 61. 254. 254. 66. 2. 1. 1. 2. 1. 26. 216. 255. 103.
      1. 1. 1. 1. 1. 24. 222. 255. 169. 0. 1. 1. 1. 1. 26. 221. 255.
      174. 1. 0. 1. 1. 0. 1. 105. 254. 254. 223. 178. 179. 178. 140. 1.</_>
    <_>
      1. 0. 0. 56. 205. 254. 172. 21. 0. 0. 1. 1. 1. 246. 218. 188. 254.
      83. 0. 0. 1. 1. 61. 254. 74. 1. 207. 130. 0. 0. 0. 1. 3. 66. 1. 5.
      216. 130. 0. 0. 1. 1. 1. 1. 1. 75. 253. 58. 0. 0. 1. 1. 1. 1. 19.
      224. 137. 1. 0. 0. 1. 1. 2. 1. 114. 232. 10. 1. 0. 0. 1. 1. 1. 76.
      232. 41. 0. 1. 0. 0. 1. 1. 27. 215. 155. 1. 1. 1. 0. 0. 1. 1. 107.
      254. 151. 163. 96. 1. 0. 0.</_>
    <_>
      0. 2. 101. 253. 246. 245. 211. 22. 1. 1. 1. 23. 251. 132. 1. 1.
      196. 165. 3. 1. 2. 9. 86. 1. 2. 1. 161. 241. 19. 1. 1. 1. 1. 1. 1.
      71. 238. 134. 1. 1. 1. 1. 0. 1. 16. 207. 166. 11. 0. 0. 0. 2. 1.
      14. 174. 199. 12. 0. 0. 0. 1. 1. 1. 148. 234. 63. 0. 1. 0. 0. 1.
      1. 77. 224. 62. 1. 1. 0. 0. 0. 1. 20. 246. 227. 33. 33. 112. 70.
      0. 1. 1. 22. 255. 253. 248. 154. 130. 185. 12. 2.</_>
    <_>
      1. 1. 28. 192. 245. 229. 125. 10. 0. 0. 1. 0. 126. 255. 82. 62.
      255. 90. 0. 0. 1. 1. 89. 175. 1. 49. 255. 143. 0. 0. 1. 1. 11. 9.
      0. 91. 255. 66. 0. 0. 1. 0. 0. 0. 45. 233. 210. 22. 0. 0. 0. 1. 0.
      1. 192. 206. 22. 1. 0. 0. 1. 1. 10. 174. 228. 21. 0. 1. 0. 0. 1.
      1. 90. 255. 129. 1. 1. 2. 0. 0. 2. 0. 206. 255. 225. 207. 246. 39.
      0. 0. 0. 0. 124. 164. 40. 22. 40. 1. 0. 0.</_>
    <_>
      1. 0. 43. 161. 255. 255. 161. 44. 0. 1. 1. 44. 230. 254. 172. 149.
      222. 244. 100. 1. 1. 13. 147. 120. 7. 1. 175. 254. 106. 0. 1. 0.
      1. 1. 1. 18. 199. 253. 105. 0. 0. 1. 1. 1. 17. 178. 254. 198. 23.
      1. 1. 1. 1. 0. 166. 254. 196. 25. 2. 1. 2. 0. 1. 146. 238. 196.
      26. 0. 1. 1. 1. 1. 74. 239. 197. 26. 1. 1. 1. 1. 0. 62. 243. 255.
      138. 114. 149. 149. 62. 0. 1. 105. 255. 254. 255. 254. 254. 254.
      105. 1.</_>
    <_>
      1. 0. 10. 224. 183. 153. 138. 39. 0. 0. 1. 2. 26. 255. 188. 127.
      228. 178. 0. 0. 1. 1. 22. 249. 39. 1. 67. 229. 0. 0. 0. 0. 1. 41.
      1. 1. 191. 178. 0. 0. 1. 1. 0. 1. 2. 85. 233. 16. 0. 0. 1. 2. 1.
      1. 85. 254. 120. 1. 0. 0. 1. 1. 1. 167. 254. 142. 2. 1. 0. 0. 1.
      1. 14. 228. 204. 11. 1. 0. 0. 0. 1. 1. 107. 255. 234. 173. 204.
      184. 0. 0. 0. 1. 127. 255. 152. 153. 153. 138. 0. 0.</_>
    <_>
      1. 2. 19. 104. 191. 237. 106. 2. 0. 0. 1. 1. 168. 254. 214. 214.
      254. 99. 0. 0. 1. 0. 235. 212. 24. 44. 255. 178. 0. 0. 0. 2. 41.
      1. 1. 64. 255. 128. 0. 0. 1. 0. 1. 1. 2. 237. 254. 76. 0. 0. 1. 1.
      1. 10. 176. 254. 151. 0. 0. 0. 1. 0. 1. 99. 254. 191. 17. 2. 0. 0.
      0. 1. 70. 250. 255. 6. 1. 0. 0. 0. 1. 1. 202. 254. 254. 165. 165.
      156. 0. 0. 0. 2. 190. 253. 255. 254. 254. 191. 0. 0.</_>
    <_>
      1. 1. 32. 182. 186. 221. 216. 30. 0. 0. 2. 1. 105. 246. 66. 10.
      246. 118. 0. 0. 1. 1. 1. 37. 1. 2. 212. 118. 0. 0. 1. 1. 0. 1. 1.
      43. 254. 81. 0. 0. 1. 1. 1. 2. 8. 219. 196. 0. 0. 0. 1. 1. 1. 2.
      86. 251. 40. 1. 0. 0. 1. 2. 0. 55. 253. 96. 0. 2. 0. 0. 1. 2. 2.
      211. 234. 20. 1. 0. 0. 0. 0. 1. 105. 254. 143. 1. 12. 1. 0. 0. 0.
      1. 70. 255. 178. 45. 231. 1. 0. 0.</_>
    <_>
      1. 1. 1. 11. 176. 254. 120. 1. 0. 0. 1. 1. 2. 139. 215. 179. 232.
      11. 0. 0. 0. 0. 1. 111. 88. 2. 194. 13. 0. 0. 0. 1. 0. 1. 0. 25.
      232. 13. 0. 0. 0. 2. 1. 0. 2. 124. 179. 3. 0. 0. 2. 1. 1. 1. 19.
      249. 55. 1. 0. 0. 1. 1. 1. 1. 151. 181. 1. 1. 0. 0. 0. 1. 1. 37.
      236. 58. 1. 0. 0. 0. 0. 0. 0. 165. 209. 64. 64. 4. 0. 0. 0. 0. 0.
      165. 254. 255. 255. 13. 0. 0.</_>
    <_>
      1. 0. 9. 90. 165. 163. 80. 2. 0. 0. 1. 1. 126. 254. 143. 192. 245.
      38. 0. 0. 0. 1. 165. 82. 2. 1. 254. 144. 0. 0. 0. 1. 0. 2. 1. 48.
      254. 65. 0. 0. 1. 1. 1. 1. 9. 216. 189. 1. 0. 0. 0. 1. 1. 1. 174.
      206. 22. 0. 0. 0. 1. 0. 0. 81. 246. 82. 1. 1. 0. 0. 0. 1. 39. 246.
      130. 1. 1. 1. 0. 0. 1. 1. 206. 255. 48. 48. 48. 9. 0. 0. 1. 1.
      255. 254. 254. 255. 254. 49. 0. 0.</_>
    <_>
      0. 0. 5. 115. 245. 254. 234. 103. 4. 2. 1. 1. 71. 254. 178. 97.
      174. 253. 46. 1. 2. 1. 51. 185. 46. 0. 45. 254. 45. 1. 1. 1. 1. 1.
      0. 8. 174. 255. 46. 0. 1. 1. 1. 0. 1. 183. 254. 190. 4. 0. 1. 0.
      2. 1. 72. 255. 224. 34. 0. 1. 1. 1. 1. 80. 247. 223. 35. 1. 1. 0.
      1. 1. 20. 222. 255. 33. 2. 0. 0. 0. 1. 1. 164. 254. 201. 95. 96.
      179. 37. 1. 1. 1. 185. 254. 253. 254. 255. 255. 45. 1.</_>
    <_>
      0. 2. 1. 163. 89. 82. 115. 1. 0. 0. 0. 1. 1. 189. 20. 2. 220. 1.
      0. 0. 0. 1. 0. 2. 1. 5. 251. 2. 0. 0. 1. 1. 1. 0. 1. 73. 209. 2.
      0. 0. 0. 1. 0. 1. 0. 198. 99. 1. 0. 0. 1. 0. 1. 1. 116. 190. 10.
      1. 0. 0. 1. 2. 1. 38. 251. 70. 0. 0. 0. 0. 1. 0. 1. 157. 254. 0.
      1. 0. 0. 0. 1. 2. 1. 226. 213. 51. 128. 0. 0. 0. 2. 1. 1. 253.
      254. 255. 254. 106. 0. 0.</_>
    <_>
      1. 1. 1. 201. 215. 191. 208. 17. 0. 0. 2. 1. 28. 247. 58. 0. 207.
      83. 0. 0. 1. 1. 0. 28. 1. 2. 201. 84. 0. 0. 1. 1. 0. 0. 2. 108.
      252. 28. 0. 0. 1. 0. 0. 0. 1. 214. 106. 1. 0. 0. 1. 1. 2. 0. 81.
      254. 23. 2. 0. 0. 1. 1. 1. 3. 226. 115. 2. 1. 0. 0. 1. 1. 1. 119.
      211. 13. 1. 1. 0. 0. 0. 1. 2. 236. 209. 128. 127. 64. 0. 0. 1. 2.
      1. 179. 165. 164. 205. 83. 0. 0.</_>
    <_>
      1. 1. 1. 118. 246. 255. 136. 0. 0. 0. 2. 1. 35. 251. 153. 118.
      241. 100. 0. 0. 1. 1. 48. 135. 0. 2. 207. 130. 0. 0. 1. 1. 1. 1.
      1. 11. 231. 96. 0. 0. 1. 1. 1. 0. 5. 169. 230. 5. 0. 0. 0. 1. 0.
      1. 90. 253. 55. 1. 0. 0. 1. 2. 1. 79. 251. 101. 1. 0. 0. 0. 1. 0.
      31. 220. 183. 9. 1. 1. 0. 0. 1. 1. 110. 233. 13. 0. 0. 1. 0. 0. 1.
      1. 254. 255. 188. 255. 246. 1. 0. 0.</_>
    <_>
      1. 0. 92. 254. 189. 220. 216. 1. 0. 0. 1. 1. 201. 139. 0. 26. 254.
      1. 0. 0. 0. 2. 42. 20. 0. 127. 255. 0. 0. 0. 1. 1. 1. 1. 14. 227.
      195. 1. 0. 0. 1. 1. 2. 0. 146. 253. 68. 0. 0. 0. 2. 0. 1. 40. 253.
      189. 1. 1. 0. 0. 1. 1. 1. 170. 225. 14. 0. 1. 0. 0. 1. 1. 65. 254.
      128. 1. 55. 0. 0. 0. 1. 1. 191. 255. 207. 226. 254. 60. 0. 0. 1.
      0. 167. 254. 201. 150. 150. 32. 0. 0.</_>
    <_>
      1. 1. 1. 84. 255. 219. 135. 1. 0. 0. 1. 0. 1. 195. 219. 195. 254.
      59. 0. 0. 1. 0. 2. 184. 36. 1. 254. 97. 0. 0. 1. 1. 1. 1. 0. 60.
      254. 61. 0. 0. 1. 1. 1. 1. 1. 195. 219. 1. 0. 0. 1. 1. 1. 1. 84.
      254. 37. 1. 0. 0. 1. 2. 1. 37. 254. 136. 0. 1. 0. 0. 1. 0. 1. 171.
      219. 1. 1. 1. 0. 0. 0. 0. 1. 255. 195. 61. 84. 1. 0. 0. 0. 0. 1.
      255. 85. 60. 135. 1. 0. 0.</_>
    <_>
      1. 1. 4. 254. 255. 255. 255. 55. 0. 0. 2. 0. 128. 254. 149. 128.
      255. 127. 0. 0. 1. 1. 35. 93. 0. 12. 242. 128. 0. 0. 1. 1. 0. 1.
      1. 90. 252. 65. 0. 0. 0. 0. 1. 0. 27. 240. 192. 1. 0. 0. 0. 1. 1.
      4. 177. 235. 65. 2. 0. 0. 1. 1. 1. 157. 255. 112. 1. 0. 0. 0. 1.
      1. 36. 254. 227. 0. 1. 1. 0. 0. 0. 1. 188. 255. 234. 22. 105. 3.
      0. 0. 0. 1. 188. 255. 255. 79. 242. 83. 0. 0.</_>
    <_>
      1. 1. 4. 255. 255. 240. 56. 0. 0. 0. 2. 1. 4. 254. 190. 167. 237.
      3. 0. 0. 1. 1. 3. 244. 21. 22. 247. 95. 0. 0. 1. 1. 1. 1. 1. 33.
      252. 121. 0. 0. 0. 1. 1. 1. 1. 125. 249. 2. 0. 0. 2. 2. 2. 1. 88.
      251. 79. 1. 0. 0. 2. 1. 0. 9. 234. 173. 1. 1. 0. 0. 1. 1. 1. 163.
      241. 15. 2. 0. 0. 0. 1. 1. 41. 230. 195. 1. 1. 1. 0. 0. 1. 2. 127.
      254. 242. 243. 254. 4. 0. 0.</_>
    <_>
      2. 1. 0. 29. 255. 193. 0. 1. 0. 0. 1. 1. 1. 118. 250. 249. 170. 3.
      0. 0. 2. 1. 0. 242. 123. 66. 254. 83. 0. 0. 0. 1. 1. 169. 6. 1.
      255. 105. 0. 0. 1. 1. 1. 1. 0. 133. 254. 38. 0. 0. 2. 1. 1. 1. 58.
      255. 139. 1. 0. 0. 1. 2. 0. 4. 226. 197. 17. 1. 0. 0. 1. 0. 1.
      176. 255. 54. 1. 0. 0. 0. 1. 0. 19. 249. 254. 127. 128. 20. 0. 0.
      1. 0. 26. 251. 254. 254. 186. 18. 0. 0.</_>
    <_>
      1. 1. 64. 192. 255. 255. 255. 64. 0. 1. 1. 1. 192. 255. 128. 64.
      191. 254. 1. 1. 0. 1. 128. 64. 1. 1. 127. 255. 128. 2. 0. 2. 1. 1.
      1. 1. 191. 254. 1. 0. 1. 1. 1. 1. 1. 191. 254. 64. 0. 0. 1. 2. 1.
      1. 191. 255. 190. 1. 0. 0. 1. 1. 1. 65. 254. 190. 1. 1. 0. 0. 1.
      1. 64. 255. 191. 1. 0. 0. 0. 0. 1. 1. 255. 255. 64. 128. 127. 128.
      64. 1. 1. 65. 255. 254. 255. 253. 254. 254. 64. 1.</_>
    <_>
      0. 1. 1. 111. 229. 153. 52. 1. 0. 0. 0. 1. 61. 254. 255. 254. 226.
      3. 0. 0. 1. 1. 65. 241. 12. 66. 254. 3. 0. 0. 1. 1. 1. 17. 0. 115.
      252. 3. 0. 0. 1. 1. 1. 0. 36. 250. 164. 0. 0. 0. 1. 1. 1. 3. 210.
      248. 26. 0. 0. 0. 1. 1. 1. 88. 255. 113. 1. 2. 0. 0. 1. 1. 2. 228.
      178. 1. 2. 1. 0. 0. 0. 1. 128. 255. 195. 137. 108. 1. 0. 0. 0. 1.
      128. 255. 255. 255. 221. 1. 0. 0.</_>
    <_>
      0. 1. 82. 213. 254. 255. 212. 23. 1. 1. 1. 23. 254. 250. 233. 239.
      254. 164. 3. 0. 1. 19. 219. 179. 1. 74. 255. 255. 23. 1. 0. 1. 1.
      1. 0. 153. 254. 189. 7. 1. 0. 1. 1. 2. 72. 237. 255. 70. 0. 0. 1.
      2. 1. 72. 237. 255. 155. 9. 0. 0. 1. 1. 70. 238. 254. 155. 9. 1.
      0. 0. 2. 20. 241. 255. 156. 9. 1. 1. 0. 0. 0. 75. 254. 255. 239.
      233. 232. 142. 0. 0. 0. 85. 254. 254. 255. 254. 254. 155. 0. 0.</_>
    <_>
      1. 1. 1. 22. 164. 254. 117. 0. 0. 0. 1. 1. 0. 189. 234. 192. 246.
      39. 0. 0. 1. 0. 18. 225. 132. 112. 254. 47. 0. 0. 1. 0. 0. 40. 1.
      112. 254. 48. 0. 0. 1. 1. 1. 1. 27. 234. 207. 1. 0. 0. 1. 1. 1. 1.
      125. 254. 82. 0. 0. 0. 1. 0. 2. 22. 255. 127. 0. 1. 0. 0. 2. 1. 1.
      189. 234. 27. 2. 1. 0. 0. 0. 1. 27. 234. 233. 191. 234. 28. 0. 0.
      1. 1. 27. 234. 255. 253. 234. 27. 0. 0.</_>
    <_>
      1. 1. 1. 67. 230. 255. 158. 20. 0. 0. 1. 0. 42. 252. 114. 32. 179.
      163. 1. 0. 1. 2. 27. 115. 1. 1. 128. 199. 2. 1. 1. 1. 2. 0. 1. 8.
      179. 161. 0. 0. 0. 1. 1. 0. 0. 95. 250. 20. 0. 0. 1. 1. 1. 1. 83.
      241. 66. 1. 0. 0. 1. 0. 0. 19. 225. 150. 1. 0. 0. 0. 1. 2. 1. 166.
      152. 1. 0. 1. 0. 0. 1. 1. 91. 254. 116. 88. 128. 97. 1. 0. 1. 1.
      69. 146. 146. 145. 242. 190. 2. 0.</_>
    <_>
      1. 1. 1. 191. 255. 254. 191. 64. 1. 1. 1. 1. 191. 254. 128. 127.
      191. 254. 64. 1. 1. 1. 128. 64. 1. 2. 128. 254. 128. 1. 1. 1. 1.
      1. 1. 1. 191. 255. 64. 1. 1. 1. 1. 1. 1. 191. 254. 128. 0. 0. 1.
      2. 1. 1. 64. 255. 191. 1. 0. 0. 1. 1. 1. 65. 254. 191. 1. 0. 0. 0.
      1. 1. 64. 255. 191. 0. 0. 1. 0. 0. 1. 0. 254. 255. 64. 0. 128. 1.
      0. 0. 1. 64. 254. 192. 191. 254. 254. 64. 0. 0.</_>
    <_>
      1. 0. 1. 236. 211. 62. 236. 1. 0. 0. 0. 1. 1. 235. 21. 6. 247. 56.
      0. 0. 1. 1. 1. 1. 1. 4. 241. 108. 0. 0. 1. 1. 1. 1. 1. 106. 254.
      1. 0. 0. 1. 0. 1. 1. 28. 253. 161. 1. 0. 0. 2. 1. 1. 1. 210. 249.
      17. 1. 0. 0. 1. 1. 1. 96. 254. 71. 2. 1. 0. 0. 1. 0. 1. 231. 207.
      1. 1. 1. 0. 0. 0. 1. 55. 254. 213. 80. 148. 1. 0. 0. 1. 0. 110.
      254. 255. 174. 198. 1. 0. 0.</_>
    <_>
      0. 0. 70. 253. 254. 255. 253. 57. 0. 0. 1. 47. 241. 251. 120. 189.
      254. 180. 0. 0. 1. 11. 132. 94. 1. 93. 254. 213. 0. 0. 1. 0. 1. 0.
      4. 151. 254. 159. 0. 0. 1. 1. 1. 1. 77. 255. 252. 40. 0. 0. 1. 1.
      1. 54. 236. 253. 114. 1. 0. 0. 1. 1. 2. 245. 254. 114. 2. 1. 0. 0.
      1. 2. 170. 255. 200. 1. 39. 17. 0. 0. 1. 29. 230. 254. 240. 188.
      250. 185. 0. 0. 0. 2. 163. 254. 179. 137. 188. 70. 0. 0.</_>
    <_>
      0. 1. 114. 253. 255. 255. 195. 12. 0. 0. 1. 45. 242. 250. 119.
      189. 253. 106. 0. 0. 1. 40. 194. 93. 0. 92. 254. 151. 0. 0. 1. 1.
      2. 0. 5. 150. 255. 106. 0. 0. 1. 1. 1. 1. 78. 254. 226. 39. 0. 0.
      2. 1. 1. 54. 234. 255. 87. 2. 0. 0. 1. 0. 2. 190. 254. 114. 2. 1.
      0. 0. 1. 1. 169. 255. 201. 1. 1. 0. 0. 0. 1. 50. 243. 255. 240.
      187. 188. 157. 0. 0. 0. 36. 235. 254. 254. 254. 255. 163. 0. 0.</_>
    <_>
      1. 1. 2. 105. 238. 237. 105. 3. 0. 0. 1. 0. 99. 255. 213. 180.
      253. 140. 0. 0. 0. 1. 121. 168. 24. 4. 197. 242. 0. 0. 1. 1. 0. 1.
      1. 64. 255. 168. 0. 0. 1. 1. 1. 1. 52. 238. 214. 25. 0. 0. 1. 1.
      0. 51. 238. 217. 30. 0. 0. 0. 1. 0. 6. 197. 254. 30. 1. 1. 0. 0.
      1. 0. 128. 255. 145. 2. 1. 1. 0. 0. 0. 0. 241. 254. 214. 165. 165.
      37. 0. 0. 0. 1. 241. 200. 125. 141. 139. 71. 0. 0.</_>
    <_>
      1. 1. 10. 140. 152. 77. 0. 1. 0. 0. 1. 0. 2. 165. 234. 218. 176.
      6. 0. 0. 1. 1. 1. 204. 47. 9. 254. 25. 0. 0. 0. 1. 1. 40. 1. 0.
      254. 56. 0. 0. 2. 1. 0. 1. 1. 56. 234. 15. 0. 0. 1. 0. 1. 1. 1.
      214. 120. 2. 0. 0. 1. 0. 2. 1. 140. 216. 2. 1. 0. 0. 1. 1. 0. 65.
      247. 59. 1. 1. 0. 0. 2. 1. 13. 214. 172. 1. 1. 0. 0. 0. 0. 1. 97.
      254. 255. 254. 254. 26. 0. 0.</_>
    <_>
      1. 1. 1. 82. 252. 249. 236. 1. 0. 0. 2. 1. 1. 198. 101. 1. 179.
      96. 0. 0. 2. 1. 1. 1. 1. 1. 168. 62. 0. 0. 1. 1. 1. 1. 1. 6. 241.
      1. 0. 0. 1. 1. 0. 1. 1. 147. 163. 0. 0. 0. 0. 1. 2. 1. 42. 224.
      16. 1. 0. 0. 1. 0. 2. 2. 150. 132. 1. 1. 0. 0. 1. 1. 1. 19. 252.
      37. 2. 0. 0. 0. 0. 1. 1. 162. 137. 1. 1. 1. 0. 0. 0. 1. 1. 226.
      213. 187. 220. 55. 0. 0.</_>
    <_>
      1. 0. 1. 64. 191. 254. 255. 64. 0. 1. 1. 1. 64. 255. 64. 1. 64.
      254. 1. 1. 0. 1. 64. 64. 1. 1. 1. 254. 128. 2. 0. 1. 1. 1. 1. 1.
      64. 254. 1. 0. 0. 1. 0. 0. 1. 64. 254. 64. 0. 0. 1. 1. 1. 0. 0.
      254. 128. 1. 0. 0. 2. 2. 1. 1. 191. 191. 1. 1. 0. 0. 1. 1. 1. 191.
      191. 1. 1. 0. 0. 0. 2. 0. 191. 191. 0. 1. 1. 1. 0. 0. 1. 1. 254.
      255. 127. 255. 254. 191. 0. 0.</_>
    <_>
      1. 0. 21. 203. 255. 245. 77. 2. 0. 0. 1. 0. 100. 228. 57. 139.
      251. 34. 0. 0. 1. 1. 31. 63. 0. 23. 254. 62. 0. 0. 1. 0. 1. 1. 1.
      92. 246. 3. 0. 0. 1. 1. 0. 1. 17. 238. 127. 0. 0. 0. 0. 1. 1. 1.
      124. 226. 7. 1. 0. 0. 1. 1. 1. 42. 249. 80. 1. 1. 0. 0. 2. 0. 1.
      217. 98. 2. 1. 1. 0. 0. 1. 0. 91. 255. 23. 1. 0. 0. 0. 0. 1. 0.
      131. 255. 254. 254. 246. 1. 0. 0.</_>
    <_>
      0. 1. 93. 236. 213. 188. 255. 200. 2. 1. 2. 0. 146. 217. 19. 1.
      104. 254. 58. 0. 1. 1. 1. 1. 1. 2. 58. 255. 58. 1. 1. 1. 1. 1. 1.
      1. 180. 241. 14. 1. 1. 1. 1. 1. 0. 116. 254. 127. 0. 0. 1. 1. 2.
      1. 105. 255. 182. 1. 0. 0. 1. 1. 1. 38. 237. 223. 30. 1. 0. 0. 0.
      1. 0. 222. 254. 67. 1. 0. 0. 0. 1. 1. 141. 254. 77. 0. 1. 1. 0. 0.
      1. 53. 254. 254. 108. 83. 84. 109. 0. 0.</_>
    <_>
      1. 1. 1. 59. 245. 237. 234. 103. 4. 1. 1. 1. 45. 238. 159. 7. 124.
      255. 44. 2. 1. 2. 20. 71. 5. 0. 25. 222. 45. 1. 1. 1. 1. 0. 1. 0.
      88. 228. 28. 1. 0. 1. 1. 1. 0. 73. 247. 79. 0. 0. 1. 1. 1. 1. 9.
      196. 144. 0. 0. 0. 1. 1. 1. 2. 141. 165. 2. 1. 0. 0. 1. 1. 2. 101.
      216. 34. 1. 1. 0. 0. 1. 0. 58. 247. 39. 0. 61. 69. 0. 0. 1. 1.
      122. 254. 237. 236. 247. 184. 0. 0.</_>
    <_>
      0. 1. 93. 236. 213. 188. 255. 200. 2. 1. 2. 0. 146. 217. 19. 1.
      104. 254. 58. 0. 1. 1. 1. 1. 1. 2. 58. 255. 58. 1. 1. 1. 1. 1. 1.
      1. 180. 241. 14. 1. 1. 1. 1. 1. 0. 116. 254. 127. 0. 0. 1. 1. 2.
      1. 105. 255. 182. 1. 0. 0. 1. 1. 1. 38. 237. 223. 30. 1. 0. 0. 0.
      1. 0. 222. 254. 67. 1. 0. 0. 0. 1. 1. 141. 255. 77. 0. 1. 1. 0. 0.
      1. 29. 255. 254. 108. 83. 84. 109. 0. 0.</_>
    <_>
      2. 0. 1. 39. 193. 254. 254. 87. 0. 0. 1. 1. 1. 166. 234. 128. 229.
      229. 0. 0. 0. 1. 1. 153. 77. 2. 127. 229. 0. 0. 1. 2. 1. 1. 1. 1.
      192. 229. 0. 0. 1. 1. 0. 2. 2. 84. 254. 128. 0. 0. 2. 1. 1. 0. 31.
      255. 224. 10. 0. 0. 1. 1. 1. 0. 155. 240. 64. 1. 0. 0. 0. 1. 1.
      72. 255. 100. 0. 0. 0. 0. 1. 0. 13. 228. 204. 1. 0. 1. 0. 0. 1. 1.
      97. 254. 255. 178. 201. 59. 0. 0.</_>
    <_>
      1. 0. 21. 171. 255. 246. 57. 1. 0. 0. 1. 1. 129. 240. 103. 69.
      245. 1. 0. 0. 1. 1. 65. 64. 1. 48. 253. 47. 0. 0. 1. 1. 1. 1. 1.
      173. 223. 1. 0. 0. 1. 1. 1. 0. 31. 235. 81. 1. 0. 0. 0. 1. 0. 5.
      182. 172. 2. 1. 0. 0. 2. 0. 1. 93. 237. 18. 0. 1. 0. 0. 1. 1. 30.
      250. 98. 1. 0. 1. 0. 0. 0. 1. 111. 254. 125. 146. 142. 1. 0. 0. 1.
      1. 103. 160. 156. 156. 150. 1. 0. 0.</_>
    <_>
      1. 0. 1. 132. 255. 254. 203. 4. 0. 0. 0. 1. 1. 247. 235. 164. 255.
      110. 0. 0. 1. 1. 1. 138. 73. 4. 241. 109. 0. 0. 1. 1. 1. 1. 1. 22.
      254. 96. 0. 0. 0. 1. 2. 0. 1. 150. 236. 1. 0. 0. 1. 1. 0. 1. 42.
      255. 150. 1. 0. 0. 1. 1. 1. 1. 188. 252. 28. 1. 0. 0. 1. 1. 0. 73.
      254. 108. 1. 1. 0. 0. 0. 1. 1. 162. 190. 1. 1. 1. 0. 0. 2. 0. 36.
      254. 199. 83. 96. 1. 0. 0.</_>
    <_>
      1. 0. 0. 93. 253. 255. 101. 1. 0. 0. 1. 1. 110. 255. 177. 234.
      249. 1. 0. 0. 0. 1. 120. 152. 2. 88. 255. 94. 0. 0. 0. 1. 1. 1. 0.
      83. 255. 81. 0. 0. 1. 0. 1. 1. 22. 232. 208. 1. 0. 0. 1. 1. 2. 1.
      175. 253. 54. 1. 0. 0. 1. 1. 1. 86. 254. 108. 0. 1. 0. 0. 1. 1.
      26. 213. 214. 2. 1. 0. 0. 0. 1. 1. 158. 255. 182. 71. 11. 1. 0. 0.
      1. 2. 140. 254. 218. 126. 44. 0. 0. 0.</_>
    <_>
      1. 1. 1. 235. 165. 117. 225. 2. 0. 0. 1. 1. 1. 193. 2. 5. 248. 2.
      0. 0. 1. 1. 1. 2. 0. 5. 242. 1. 0. 0. 0. 1. 0. 2. 0. 128. 202. 1.
      0. 0. 0. 1. 1. 1. 0. 212. 95. 1. 0. 0. 1. 1. 1. 1. 116. 188. 1. 1.
      0. 0. 1. 1. 1. 16. 251. 47. 1. 1. 0. 0. 1. 0. 1. 157. 207. 1. 1.
      1. 0. 0. 1. 1. 1. 242. 143. 32. 32. 14. 0. 0. 0. 1. 1. 253. 216.
      255. 255. 54. 0. 0.</_>
    <_>
      2. 1. 1. 39. 130. 193. 99. 1. 0. 0. 1. 1. 14. 230. 174. 127. 228.
      77. 0. 0. 0. 2. 13. 159. 1. 1. 97. 128. 0. 0. 1. 1. 0. 1. 1. 1.
      127. 128. 0. 0. 1. 1. 1. 1. 0. 85. 234. 16. 0. 0. 1. 1. 1. 1. 31.
      214. 90. 1. 0. 0. 1. 1. 1. 1. 156. 163. 1. 2. 0. 0. 1. 1. 1. 123.
      204. 11. 1. 1. 0. 0. 1. 1. 21. 244. 54. 1. 1. 1. 0. 0. 1. 1. 86.
      255. 172. 178. 178. 89. 0. 0.</_>
    <_>
      1. 1. 1. 96. 255. 254. 95. 1. 0. 0. 1. 1. 60. 255. 182. 220. 254.
      37. 0. 0. 1. 2. 4. 181. 31. 61. 255. 74. 0. 0. 0. 2. 0. 1. 0. 90.
      254. 29. 0. 0. 1. 1. 1. 1. 21. 243. 124. 1. 0. 0. 1. 2. 1. 1. 161.
      225. 1. 1. 0. 0. 1. 1. 1. 64. 255. 87. 1. 2. 0. 0. 1. 0. 1. 205.
      243. 12. 1. 1. 0. 0. 1. 0. 23. 254. 251. 173. 78. 1. 0. 0. 1. 1.
      1. 168. 185. 147. 77. 1. 0. 0.</_>
    <_>
      1. 2. 6. 89. 212. 246. 211. 23. 0. 1. 1. 2. 156. 217. 34. 1. 140.
      212. 14. 0. 1. 1. 61. 34. 1. 1. 86. 254. 24. 1. 1. 1. 1. 0. 1. 15.
      176. 167. 9. 0. 1. 1. 1. 1. 1. 104. 234. 26. 0. 0. 1. 1. 1. 1. 81.
      219. 63. 1. 0. 0. 0. 1. 1. 80. 221. 62. 2. 1. 0. 0. 2. 1. 61. 203.
      148. 1. 1. 0. 0. 0. 0. 10. 199. 211. 35. 26. 37. 69. 0. 1. 1. 10.
      207. 253. 247. 247. 249. 203. 12. 2.</_>
    <_>
      1. 1. 9. 174. 254. 254. 174. 10. 0. 0. 1. 1. 125. 254. 255. 255.
      255. 90. 0. 0. 2. 2. 117. 165. 1. 113. 254. 144. 0. 0. 1. 0. 1. 0.
      1. 112. 255. 102. 0. 0. 1. 0. 0. 0. 45. 234. 227. 21. 0. 0. 0. 1.
      0. 1. 192. 254. 80. 1. 0. 0. 1. 1. 10. 174. 255. 89. 2. 0. 0. 0.
      1. 1. 90. 255. 216. 10. 0. 0. 0. 0. 1. 1. 255. 253. 255. 255. 234.
      27. 0. 0. 2. 1. 206. 255. 255. 254. 234. 27. 0. 0.</_>
    <_>
      0. 1. 0. 93. 167. 254. 153. 1. 0. 0. 2. 1. 110. 245. 73. 18. 215.
      111. 0. 0. 1. 0. 64. 68. 0. 1. 175. 118. 0. 0. 1. 1. 1. 1. 0. 3.
      226. 82. 0. 0. 1. 0. 1. 1. 8. 176. 194. 0. 0. 0. 1. 1. 1. 0. 86.
      190. 14. 1. 0. 0. 1. 1. 1. 30. 252. 69. 1. 1. 0. 0. 0. 1. 1. 212.
      141. 1. 1. 1. 0. 0. 1. 1. 147. 189. 16. 17. 17. 7. 0. 0. 0. 1.
      200. 255. 254. 254. 254. 118. 0. 0.</_>
    <_>
      1. 0. 46. 204. 254. 225. 99. 2. 0. 0. 1. 2. 228. 254. 150. 189.
      255. 127. 0. 0. 1. 0. 125. 98. 1. 76. 254. 128. 0. 0. 2. 1. 1. 0.
      1. 116. 255. 127. 0. 0. 1. 1. 1. 1. 41. 254. 189. 8. 0. 0. 1. 1.
      1. 1. 224. 254. 1. 2. 0. 0. 1. 0. 1. 142. 255. 163. 1. 0. 0. 0. 0.
      2. 13. 229. 255. 29. 25. 14. 0. 0. 0. 0. 107. 255. 254. 239. 255.
      179. 0. 0. 1. 1. 77. 184. 152. 153. 152. 76. 0. 0.</_>
    <_>
      1. 0. 68. 252. 170. 87. 17. 0. 0. 0. 2. 1. 55. 250. 188. 244. 194.
      1. 0. 0. 0. 2. 131. 188. 1. 23. 255. 62. 0. 0. 1. 1. 5. 5. 1. 42.
      251. 31. 0. 0. 1. 0. 2. 0. 6. 178. 187. 1. 0. 0. 1. 1. 0. 1. 92.
      253. 55. 1. 0. 0. 1. 1. 1. 24. 243. 144. 1. 2. 0. 0. 0. 2. 1. 167.
      183. 9. 1. 1. 0. 0. 1. 0. 61. 255. 99. 56. 21. 1. 0. 0. 1. 1. 104.
      254. 254. 254. 254. 79. 0. 0.</_>
    <_>
      1. 1. 9. 189. 255. 254. 234. 47. 0. 0. 1. 2. 46. 255. 189. 90.
      230. 229. 0. 0. 1. 1. 74. 236. 38. 1. 128. 230. 0. 0. 1. 1. 1. 16.
      1. 38. 229. 178. 0. 0. 1. 1. 1. 2. 1. 130. 255. 56. 0. 0. 1. 2. 1.
      1. 61. 255. 180. 0. 0. 0. 1. 1. 1. 26. 217. 240. 1. 0. 0. 0. 1. 1.
      1. 166. 254. 58. 0. 0. 0. 0. 1. 1. 21. 244. 254. 128. 128. 115. 0.
      0. 1. 0. 26. 254. 254. 254. 254. 230. 0. 0.</_>
    <_>
      1. 1. 1. 81. 246. 227. 234. 45. 0. 0. 1. 1. 40. 246. 81. 22. 121.
      143. 0. 0. 1. 2. 1. 42. 0. 1. 48. 254. 0. 0. 1. 1. 1. 1. 1. 0.
      174. 164. 0. 0. 1. 1. 1. 1. 1. 81. 228. 22. 0. 0. 1. 1. 1. 1. 22.
      228. 82. 1. 0. 0. 1. 0. 2. 22. 206. 91. 1. 1. 0. 0. 2. 1. 1. 189.
      175. 10. 1. 2. 0. 0. 1. 1. 101. 192. 2. 1. 1. 2. 0. 0. 2. 1. 233.
      192. 130. 207. 190. 21. 0. 0.</_>
    <_>
      1. 1. 45. 233. 195. 232. 233. 28. 0. 0. 1. 1. 234. 253. 10. 174.
      255. 91. 0. 0. 1. 0. 64. 21. 0. 64. 255. 125. 0. 0. 1. 2. 1. 1. 1.
      189. 234. 27. 0. 0. 1. 1. 1. 0. 123. 255. 154. 0. 0. 0. 1. 1. 0.
      91. 254. 254. 21. 0. 0. 0. 1. 1. 26. 235. 229. 64. 2. 0. 0. 0. 0.
      1. 175. 255. 171. 2. 1. 1. 0. 0. 1. 0. 255. 255. 255. 255. 234.
      27. 0. 0. 1. 1. 164. 164. 164. 254. 143. 27. 0. 0.</_>
    <_>
      2. 0. 2. 51. 140. 237. 141. 25. 0. 0. 0. 1. 50. 233. 134. 65. 171.
      213. 0. 0. 0. 1. 65. 99. 3. 1. 89. 242. 0. 0. 1. 1. 1. 2. 1. 1.
      115. 214. 0. 0. 0. 0. 1. 1. 0. 79. 245. 30. 0. 0. 2. 0. 1. 1. 18.
      249. 100. 0. 0. 0. 2. 0. 0. 24. 205. 140. 1. 1. 0. 0. 1. 1. 8.
      205. 192. 7. 0. 1. 0. 0. 1. 1. 88. 254. 93. 64. 64. 33. 0. 0. 1.
      1. 76. 226. 140. 140. 180. 173. 0. 0.</_>
    <_>
      0. 1. 1. 93. 167. 254. 153. 1. 0. 0. 1. 0. 1. 254. 240. 226. 254.
      111. 0. 0. 1. 1. 0. 218. 29. 4. 255. 118. 0. 0. 1. 1. 1. 1. 1. 4.
      253. 119. 0. 0. 0. 1. 1. 0. 2. 168. 239. 2. 0. 0. 2. 0. 1. 2. 78.
      249. 119. 1. 0. 0. 1. 1. 1. 30. 252. 205. 1. 1. 0. 0. 1. 1. 0.
      144. 246. 34. 1. 1. 0. 0. 2. 1. 8. 255. 234. 27. 47. 8. 0. 0. 1.
      1. 119. 254. 188. 63. 102. 70. 0. 0.</_>
    <_>
      0. 0. 2. 133. 237. 237. 133. 2. 0. 0. 3. 0. 99. 233. 51. 52. 232.
      99. 0. 0. 1. 1. 64. 50. 0. 3. 194. 184. 0. 0. 0. 0. 1. 1. 1. 105.
      255. 168. 0. 0. 0. 1. 1. 1. 51. 238. 254. 76. 0. 0. 1. 1. 1. 35.
      237. 249. 101. 2. 0. 0. 1. 0. 6. 171. 254. 181. 1. 1. 0. 0. 1. 0.
      128. 255. 197. 5. 10. 1. 0. 0. 0. 0. 242. 253. 213. 165. 232. 116.
      0. 0. 1. 1. 191. 254. 254. 254. 254. 145. 0. 0.</_>
    <_>
      0. 1. 1. 163. 254. 251. 204. 3. 0. 0. 1. 0. 1. 181. 149. 21. 248.
      109. 0. 0. 1. 0. 1. 55. 4. 1. 222. 109. 0. 0. 1. 1. 1. 1. 1. 22.
      255. 96. 0. 0. 1. 1. 0. 1. 1. 176. 203. 2. 0. 0. 0. 1. 2. 1. 57.
      255. 62. 1. 0. 0. 1. 0. 2. 2. 188. 249. 1. 1. 0. 0. 1. 1. 1. 19.
      251. 67. 1. 0. 0. 0. 0. 1. 1. 163. 172. 1. 1. 1. 0. 0. 1. 0. 0.
      253. 252. 130. 222. 1. 0. 0.</_>
    <_>
      1. 1. 1. 24. 252. 199. 69. 1. 0. 0. 1. 1. 1. 189. 204. 164. 218.
      1. 0. 0. 0. 1. 1. 85. 4. 8. 254. 2. 0. 0. 1. 1. 1. 1. 1. 26. 226.
      1. 0. 0. 2. 0. 1. 0. 1. 213. 132. 0. 0. 0. 2. 1. 0. 1. 106. 248.
      17. 1. 0. 0. 1. 1. 1. 8. 234. 48. 1. 1. 0. 0. 0. 2. 0. 158. 146.
      1. 2. 1. 0. 0. 0. 1. 1. 242. 83. 33. 52. 1. 0. 0. 1. 1. 2. 171.
      187. 227. 160. 2. 0. 0.</_>
    <_>
      2. 28. 232. 255. 255. 255. 255. 105. 0. 0. 0. 1. 184. 254. 254.
      255. 254. 78. 0. 0. 2. 1. 17. 49. 216. 254. 200. 0. 0. 0. 1. 1. 0.
      72. 253. 254. 80. 1. 0. 0. 1. 0. 1. 104. 255. 253. 254. 68. 0. 0.
      1. 1. 1. 5. 54. 174. 254. 190. 0. 0. 1. 1. 55. 3. 1. 7. 239. 213.
      0. 0. 0. 1. 213. 146. 1. 16. 241. 213. 0. 0. 1. 0. 214. 251. 187.
      212. 255. 134. 0. 0. 0. 1. 69. 254. 254. 254. 252. 13. 0. 0.</_>
    <_>
      1. 1. 70. 221. 150. 150. 95. 1. 0. 0. 1. 1. 60. 128. 128. 234.
      164. 0. 0. 0. 0. 1. 1. 1. 73. 246. 60. 1. 0. 0. 1. 0. 1. 51. 254.
      128. 1. 1. 0. 0. 0. 0. 1. 40. 212. 247. 121. 1. 0. 0. 0. 1. 0. 1.
      1. 79. 238. 1. 0. 0. 1. 1. 1. 1. 1. 4. 254. 2. 0. 0. 1. 1. 119.
      110. 1. 3. 255. 0. 0. 0. 1. 1. 60. 245. 128. 177. 169. 1. 0. 0. 0.
      1. 1. 119. 253. 166. 22. 1. 0. 0.</_>
    <_>
      1. 1. 109. 216. 171. 191. 254. 111. 0. 0. 1. 0. 2. 1. 0. 181. 188.
      3. 0. 0. 1. 2. 1. 1. 160. 236. 38. 1. 0. 0. 0. 1. 1. 43. 241. 242.
      89. 4. 0. 0. 0. 0. 1. 10. 126. 141. 225. 111. 0. 0. 0. 1. 1. 1. 1.
      1. 136. 242. 0. 0. 2. 1. 1. 0. 1. 1. 90. 242. 0. 0. 1. 2. 121.
      185. 3. 2. 95. 236. 0. 0. 1. 0. 100. 254. 133. 79. 232. 128. 0. 0.
      1. 1. 2. 106. 238. 237. 104. 20. 0. 0.</_>
    <_>
      1. 1. 35. 255. 195. 158. 96. 36. 0. 0. 1. 0. 61. 254. 254. 255.
      254. 96. 0. 0. 2. 1. 1. 1. 97. 254. 218. 37. 0. 0. 1. 2. 1. 0.
      135. 255. 60. 0. 0. 0. 1. 0. 1. 1. 254. 255. 84. 1. 0. 0. 1. 2. 1.
      1. 135. 219. 255. 60. 0. 0. 1. 0. 1. 1. 1. 36. 255. 159. 0. 0. 1.
      1. 1. 60. 0. 1. 254. 95. 0. 0. 1. 0. 97. 255. 36. 37. 254. 97. 0.
      0. 1. 1. 60. 254. 196. 219. 219. 36. 0. 0.</_>
    <_>
      1. 1. 164. 255. 255. 255. 233. 27. 0. 0. 1. 2. 206. 255. 255. 254.
      255. 48. 0. 0. 0. 0. 1. 21. 164. 255. 211. 21. 0. 0. 1. 1. 2. 153.
      255. 254. 112. 1. 0. 0. 1. 0. 1. 189. 254. 254. 233. 44. 0. 0. 1.
      1. 0. 23. 49. 174. 255. 144. 0. 0. 1. 1. 81. 45. 1. 50. 254. 143.
      0. 0. 1. 2. 233. 234. 49. 133. 255. 143. 0. 0. 1. 1. 193. 255.
      254. 254. 254. 90. 0. 0. 1. 1. 27. 126. 254. 165. 90. 9. 0. 0.</_>
    <_>
      1. 1. 255. 255. 255. 254. 255. 206. 0. 0. 1. 1. 143. 144. 87. 255.
      255. 164. 0. 0. 1. 1. 1. 22. 165. 254. 133. 1. 0. 0. 1. 1. 0. 190.
      255. 255. 49. 0. 0. 0. 1. 1. 1. 133. 206. 228. 254. 102. 0. 0. 0.
      1. 1. 1. 0. 21. 254. 144. 0. 0. 2. 2. 1. 0. 1. 1. 255. 143. 0. 0.
      1. 50. 207. 81. 1. 0. 255. 143. 0. 0. 1. 49. 255. 255. 143. 192.
      255. 90. 0. 0. 1. 2. 101. 234. 254. 254. 90. 10. 0. 0.</_>
    <_>
      0. 1. 31. 254. 150. 151. 149. 1. 0. 0. 1. 1. 59. 195. 229. 254.
      209. 1. 0. 0. 1. 0. 0. 2. 83. 254. 124. 1. 0. 0. 0. 1. 1. 51. 254.
      252. 26. 1. 0. 0. 1. 1. 0. 67. 255. 254. 176. 1. 0. 0. 1. 0. 1. 2.
      55. 189. 253. 1. 0. 0. 1. 1. 43. 34. 0. 4. 255. 82. 0. 0. 1. 0.
      119. 175. 1. 30. 254. 0. 0. 0. 1. 1. 119. 246. 128. 190. 209. 1.
      0. 0. 1. 2. 32. 217. 254. 253. 69. 1. 0. 0.</_>
    <_>
      0. 1. 97. 255. 254. 255. 254. 0. 0. 0. 0. 1. 1. 135. 96. 255. 196.
      2. 0. 0. 1. 1. 1. 1. 120. 254. 37. 1. 0. 0. 1. 0. 2. 1. 255. 254.
      60. 1. 0. 0. 0. 1. 1. 1. 96. 170. 254. 1. 0. 0. 0. 1. 0. 1. 1. 1.
      254. 96. 0. 0. 1. 1. 1. 159. 1. 1. 254. 97. 0. 0. 1. 1. 1. 254.
      155. 120. 255. 1. 0. 0. 1. 0. 1. 120. 253. 255. 100. 1. 0. 0. 0.
      1. 61. 96. 136. 1. 1. 1. 0. 0.</_>
    <_>
      1. 2. 1. 96. 195. 159. 159. 60. 0. 0. 1. 1. 1. 60. 160. 255. 254.
      96. 0. 0. 1. 0. 1. 0. 1. 195. 220. 36. 0. 0. 0. 1. 0. 1. 121. 254.
      120. 1. 0. 0. 1. 1. 1. 1. 159. 254. 219. 36. 0. 0. 1. 1. 1. 1. 1.
      60. 254. 96. 0. 0. 1. 1. 1. 60. 1. 0. 195. 97. 0. 0. 1. 1. 1. 253.
      60. 1. 219. 96. 0. 0. 1. 1. 0. 219. 194. 194. 254. 1. 0. 0. 1. 0.
      1. 60. 159. 219. 85. 0. 0. 0.</_>
    <_>
      0. 0. 1. 249. 255. 254. 128. 0. 0. 0. 1. 1. 1. 112. 35. 255. 125.
      3. 0. 0. 1. 0. 1. 1. 137. 216. 11. 0. 0. 0. 1. 0. 1. 17. 226. 204.
      5. 2. 0. 0. 1. 0. 0. 8. 127. 207. 107. 1. 0. 0. 1. 0. 1. 1. 1. 45.
      242. 1. 0. 0. 1. 1. 1. 7. 4. 3. 217. 1. 0. 0. 1. 1. 1. 249. 219.
      59. 248. 1. 0. 0. 2. 1. 1. 234. 255. 249. 233. 1. 0. 0. 1. 1. 0.
      40. 192. 209. 54. 2. 0. 0.</_>
    <_>
      1. 1. 60. 254. 254. 218. 194. 1. 0. 0. 1. 1. 1. 171. 255. 254.
      184. 1. 0. 0. 1. 1. 1. 1. 121. 254. 136. 1. 0. 0. 0. 0. 1. 0. 219.
      254. 1. 1. 0. 0. 1. 1. 1. 1. 255. 254. 170. 1. 0. 0. 1. 1. 0. 1.
      85. 218. 254. 0. 0. 0. 1. 1. 1. 1. 1. 61. 254. 97. 0. 0. 0. 0. 1.
      36. 0. 1. 255. 95. 0. 0. 0. 0. 1. 219. 37. 96. 255. 97. 0. 0. 1.
      1. 0. 254. 195. 219. 218. 1. 0. 0.</_>
    <_>
      1. 1. 76. 254. 203. 254. 254. 76. 0. 0. 1. 1. 84. 166. 206. 254.
      254. 128. 0. 0. 1. 2. 1. 0. 67. 254. 250. 70. 0. 0. 1. 1. 1. 43.
      241. 254. 165. 0. 0. 0. 2. 0. 0. 64. 255. 255. 241. 63. 2. 0. 0.
      1. 1. 1. 99. 131. 245. 244. 14. 2. 1. 2. 1. 0. 0. 1. 190. 254. 90.
      2. 1. 1. 172. 214. 20. 3. 193. 254. 85. 1. 2. 1. 99. 254. 180.
      178. 254. 242. 0. 0. 1. 1. 7. 169. 254. 255. 254. 92. 0. 0.</_>
    <_>
      0. 1. 56. 254. 254. 213. 254. 87. 0. 0. 1. 1. 1. 65. 39. 153. 243.
      72. 0. 0. 1. 1. 1. 0. 11. 203. 123. 1. 0. 0. 1. 1. 1. 2. 162. 255.
      2. 0. 0. 0. 0. 1. 1. 1. 130. 183. 217. 18. 0. 0. 0. 1. 1. 1. 1. 2.
      178. 157. 0. 0. 1. 1. 33. 64. 1. 1. 127. 229. 0. 0. 1. 1. 37. 242.
      39. 1. 128. 219. 0. 0. 1. 0. 13. 228. 189. 39. 230. 127. 0. 0. 1.
      1. 1. 39. 193. 254. 189. 9. 0. 0.</_>
    <_>
      1. 1. 206. 207. 234. 143. 126. 10. 0. 0. 0. 2. 101. 142. 164. 254.
      234. 27. 0. 0. 1. 1. 1. 2. 102. 254. 132. 1. 0. 0. 1. 0. 1. 91.
      234. 164. 1. 1. 0. 0. 0. 1. 2. 91. 255. 254. 90. 9. 0. 0. 1. 1. 1.
      1. 49. 174. 254. 48. 0. 0. 1. 1. 27. 9. 1. 2. 254. 65. 0. 0. 1. 1.
      233. 125. 1. 1. 254. 101. 0. 0. 0. 0. 234. 206. 48. 174. 246. 39.
      0. 0. 1. 0. 45. 234. 254. 255. 166. 0. 0. 0.</_>
    <_>
      1. 1. 1. 64. 254. 254. 255. 38. 0. 0. 1. 1. 1. 1. 1. 152. 239. 10.
      0. 0. 1. 1. 1. 1. 46. 240. 74. 1. 0. 0. 1. 1. 1. 1. 137. 254. 79.
      0. 0. 0. 1. 0. 1. 1. 40. 188. 250. 22. 0. 0. 1. 0. 1. 1. 1. 1.
      226. 38. 0. 0. 0. 1. 2. 8. 6. 0. 191. 39. 0. 0. 0. 1. 1. 225. 123.
      1. 222. 38. 0. 0. 1. 1. 0. 133. 210. 93. 247. 20. 0. 0. 1. 1. 1.
      29. 215. 255. 106. 1. 0. 0.</_>
    <_>
      1. 2. 32. 150. 149. 151. 254. 118. 0. 0. 1. 1. 8. 127. 110. 171.
      254. 105. 0. 0. 1. 1. 0. 1. 20. 214. 182. 1. 0. 0. 1. 0. 1. 25.
      207. 253. 29. 1. 0. 0. 1. 1. 2. 68. 254. 255. 206. 0. 0. 0. 1. 1.
      1. 1. 42. 86. 253. 100. 0. 0. 1. 1. 1. 1. 2. 0. 175. 175. 0. 0. 0.
      1. 82. 68. 1. 1. 175. 184. 0. 0. 1. 2. 195. 180. 9. 10. 214. 118.
      0. 0. 1. 1. 71. 254. 221. 221. 216. 32. 0. 0.</_>
    <_>
      2. 1. 1. 195. 228. 255. 196. 1. 0. 0. 2. 0. 1. 12. 19. 255. 80. 1.
      0. 0. 1. 2. 2. 1. 109. 248. 1. 1. 0. 0. 1. 1. 2. 1. 248. 251. 28.
      1. 0. 0. 1. 0. 1. 1. 147. 213. 196. 0. 0. 0. 0. 1. 2. 1. 2. 6.
      255. 0. 0. 0. 1. 1. 1. 99. 4. 7. 255. 1. 0. 0. 1. 1. 0. 206. 58.
      58. 230. 1. 0. 0. 0. 1. 1. 198. 226. 236. 162. 1. 0. 0. 1. 0. 2.
      65. 149. 198. 19. 2. 0. 0.</_>
    <_>
      1. 1. 15. 153. 152. 183. 173. 0. 0. 0. 0. 1. 21. 218. 240. 255.
      204. 1. 0. 0. 1. 1. 0. 10. 69. 254. 153. 2. 0. 0. 0. 1. 1. 1. 164.
      254. 1. 1. 0. 0. 1. 1. 1. 1. 178. 253. 201. 11. 0. 0. 0. 1. 1. 1.
      0. 31. 218. 87. 0. 0. 1. 1. 1. 16. 2. 1. 128. 127. 0. 0. 0. 1. 23.
      238. 8. 0. 191. 128. 0. 0. 0. 1. 14. 228. 189. 174. 255. 76. 0. 0.
      1. 0. 1. 100. 152. 255. 137. 9. 0. 0.</_>
    <_>
      1. 84. 255. 255. 255. 255. 255. 96. 0. 0. 1. 74. 232. 233. 249.
      253. 255. 145. 0. 0. 2. 0. 2. 46. 226. 254. 185. 14. 0. 0. 1. 0.
      24. 226. 255. 254. 87. 7. 0. 0. 1. 1. 28. 234. 255. 255. 254. 64.
      0. 1. 1. 1. 1. 40. 61. 173. 254. 231. 17. 0. 0. 49. 76. 0. 2. 15.
      214. 254. 22. 1. 0. 144. 249. 74. 0. 64. 249. 255. 23. 0. 1. 90.
      255. 239. 232. 239. 254. 165. 2. 0. 1. 1. 84. 153. 254. 255. 112.
      7. 0. 0.</_>
    <_>
      1. 0. 106. 247. 150. 204. 254. 106. 0. 0. 1. 1. 79. 181. 83. 255.
      255. 106. 0. 0. 0. 1. 1. 1. 98. 254. 252. 17. 0. 0. 2. 0. 1. 72.
      253. 255. 136. 1. 0. 0. 2. 1. 1. 53. 201. 221. 253. 91. 0. 0. 1.
      2. 1. 2. 1. 59. 248. 214. 0. 0. 1. 1. 3. 1. 1. 1. 239. 212. 0. 0.
      1. 68. 255. 76. 1. 15. 242. 195. 0. 0. 1. 19. 225. 215. 80. 189.
      255. 106. 0. 0. 1. 1. 69. 196. 255. 254. 195. 12. 0. 0.</_>
    <_>
      1. 1. 14. 254. 255. 254. 255. 94. 0. 0. 0. 1. 10. 224. 254. 253.
      254. 156. 0. 0. 1. 0. 0. 9. 127. 254. 250. 18. 0. 0. 1. 1. 1. 41.
      241. 255. 166. 1. 0. 0. 0. 0. 1. 35. 238. 254. 241. 63. 0. 0. 0.
      1. 0. 1. 53. 130. 245. 242. 0. 0. 1. 1. 6. 32. 0. 1. 191. 242. 0.
      0. 0. 1. 179. 218. 24. 3. 193. 241. 0. 0. 0. 2. 139. 255. 214.
      179. 255. 168. 0. 0. 2. 1. 7. 214. 254. 254. 214. 24. 0. 0.</_>
    <_>
      1. 1. 1. 221. 249. 254. 254. 1. 0. 0. 1. 1. 1. 1. 1. 255. 141. 1.
      0. 0. 1. 0. 1. 1. 108. 251. 14. 1. 0. 0. 1. 1. 0. 0. 248. 253. 64.
      1. 0. 0. 2. 1. 0. 0. 68. 199. 214. 1. 0. 0. 1. 1. 2. 2. 1. 7. 254.
      1. 0. 0. 1. 1. 0. 1. 1. 6. 245. 1. 0. 0. 1. 0. 0. 129. 0. 7. 254.
      0. 0. 0. 0. 2. 1. 248. 25. 106. 227. 1. 0. 0. 1. 1. 1. 203. 253.
      252. 131. 2. 0. 0.</_>
    <_>
      0. 1. 13. 254. 255. 254. 255. 127. 0. 0. 2. 1. 9. 166. 119. 169.
      254. 128. 0. 0. 2. 0. 1. 1. 7. 197. 205. 13. 0. 0. 1. 1. 1. 1.
      182. 254. 111. 4. 0. 0. 1. 2. 0. 1. 216. 254. 255. 110. 0. 0. 1.
      1. 1. 1. 2. 1. 176. 241. 0. 0. 1. 1. 6. 67. 0. 2. 90. 241. 0. 0.
      1. 0. 116. 223. 24. 2. 144. 236. 0. 0. 1. 1. 14. 255. 215. 179.
      255. 128. 0. 0. 1. 1. 2. 64. 237. 254. 214. 25. 0. 0.</_>
    <_>
      1. 2. 155. 155. 205. 254. 167. 1. 0. 0. 1. 32. 182. 168. 211. 255.
      156. 1. 0. 0. 1. 1. 0. 44. 244. 243. 24. 0. 0. 0. 0. 1. 1. 241.
      254. 243. 25. 1. 0. 0. 0. 1. 1. 168. 252. 255. 237. 232. 0. 0. 0.
      1. 1. 1. 97. 254. 254. 209. 0. 0. 1. 1. 34. 190. 18. 152. 250. 32.
      0. 0. 0. 1. 226. 179. 6. 128. 245. 2. 0. 0. 0. 1. 165. 205. 112.
      209. 161. 1. 0. 0. 1. 1. 21. 173. 254. 205. 31. 1. 0. 0.</_>
    <_>
      1. 1. 100. 234. 144. 143. 192. 28. 0. 0. 1. 2. 205. 206. 164. 254.
      254. 49. 0. 0. 1. 1. 2. 1. 66. 255. 133. 1. 0. 0. 1. 1. 1. 91.
      234. 254. 1. 1. 0. 0. 0. 0. 1. 91. 255. 254. 234. 27. 0. 0. 1. 0.
      2. 0. 48. 90. 255. 124. 0. 0. 1. 1. 27. 27. 0. 1. 254. 144. 0. 0.
      0. 2. 185. 234. 1. 1. 255. 143. 0. 0. 2. 0. 126. 255. 234. 233.
      246. 39. 0. 0. 1. 2. 10. 90. 205. 164. 81. 1. 0. 0.</_>
    <_>
      1. 0. 1. 143. 131. 254. 215. 1. 0. 0. 0. 2. 1. 1. 41. 254. 163. 1.
      0. 0. 1. 1. 1. 2. 178. 254. 33. 0. 0. 0. 1. 1. 1. 12. 251. 255.
      89. 0. 0. 0. 1. 0. 1. 1. 147. 227. 216. 0. 0. 0. 0. 2. 1. 1. 1.
      67. 254. 56. 0. 0. 1. 0. 1. 29. 1. 6. 255. 84. 0. 0. 1. 1. 63.
      241. 5. 7. 255. 0. 0. 0. 1. 1. 108. 255. 83. 134. 255. 1. 0. 0. 1.
      0. 55. 237. 253. 255. 176. 1. 0. 0.</_>
    <_>
      1. 2. 1. 193. 248. 210. 133. 1. 0. 0. 1. 1. 0. 1. 0. 128. 141. 1.
      0. 0. 1. 0. 1. 1. 1. 205. 19. 1. 0. 0. 1. 1. 1. 1. 99. 131. 1. 0.
      0. 0. 1. 1. 1. 0. 87. 175. 115. 1. 0. 0. 1. 2. 0. 1. 0. 2. 233. 1.
      0. 0. 1. 0. 1. 2. 1. 0. 202. 25. 0. 0. 1. 1. 1. 31. 2. 1. 222. 92.
      0. 0. 1. 1. 1. 230. 4. 1. 227. 1. 0. 0. 0. 1. 1. 197. 188. 188.
      235. 1. 0. 0.</_>
    <_>
      1. 0. 81. 143. 144. 142. 192. 28. 0. 0. 1. 1. 28. 49. 66. 233.
      234. 27. 0. 0. 1. 1. 1. 1. 101. 234. 49. 1. 0. 0. 1. 1. 1. 91.
      234. 233. 1. 1. 0. 0. 0. 1. 1. 49. 207. 228. 125. 10. 0. 0. 1. 1.
      1. 2. 1. 22. 254. 49. 0. 0. 1. 1. 48. 9. 1. 2. 255. 101. 0. 0. 1.
      0. 255. 89. 1. 0. 255. 65. 0. 0. 0. 1. 126. 206. 143. 192. 210.
      22. 0. 0. 1. 2. 10. 125. 164. 164. 22. 1. 0. 0.</_>
    <_>
      1. 1. 57. 255. 254. 214. 254. 25. 0. 0. 1. 1. 14. 128. 77. 203.
      245. 21. 0. 0. 1. 0. 1. 1. 59. 245. 123. 1. 0. 0. 1. 0. 1. 0. 216.
      254. 1. 1. 0. 0. 0. 1. 1. 1. 224. 225. 216. 19. 0. 0. 2. 0. 1. 1.
      1. 31. 216. 127. 0. 0. 1. 1. 0. 2. 0. 2. 128. 229. 0. 0. 0. 0. 14.
      208. 39. 1. 141. 229. 0. 0. 1. 1. 26. 255. 114. 38. 255. 148. 0.
      0. 2. 2. 8. 188. 254. 255. 234. 16. 0. 0.</_>
    <_>
      1. 0. 97. 134. 246. 255. 254. 184. 0. 0. 1. 0. 69. 96. 222. 254.
      254. 165. 0. 0. 1. 1. 1. 27. 210. 254. 192. 20. 0. 0. 1. 2. 1.
      139. 255. 254. 139. 1. 0. 0. 1. 0. 1. 210. 255. 255. 251. 171. 1.
      1. 2. 0. 1. 45. 121. 130. 247. 255. 45. 2. 0. 10. 95. 28. 1. 2.
      160. 255. 45. 1. 1. 45. 255. 186. 6. 14. 228. 254. 45. 0. 1. 45.
      254. 255. 212. 213. 254. 197. 9. 2. 1. 4. 50. 233. 255. 254. 180.
      45. 1. 0.</_>
    <_>
      1. 1. 21. 230. 156. 241. 199. 0. 0. 0. 1. 1. 28. 178. 192. 254.
      211. 1. 0. 0. 1. 1. 2. 1. 57. 249. 76. 1. 0. 0. 1. 0. 1. 1. 180.
      232. 1. 0. 0. 0. 1. 1. 1. 1. 232. 243. 64. 1. 0. 0. 1. 1. 0. 0.
      79. 181. 229. 6. 0. 0. 1. 1. 0. 1. 2. 22. 254. 61. 0. 0. 2. 1. 1.
      59. 1. 23. 254. 62. 0. 0. 1. 0. 61. 207. 1. 69. 249. 35. 0. 0. 1.
      2. 21. 102. 24. 212. 137. 1. 0. 0.</_>
    <_>
      1. 1. 98. 251. 216. 254. 114. 1. 0. 0. 1. 1. 125. 251. 253. 254.
